"","LSI_2","LSI_3","LSI_4","LSI_5","LSI_6","LSI_7","LSI_8","LSI_9","LSI_10","LSI_11","LSI_12","LSI_13","LSI_14","LSI_15","LSI_16","LSI_17","LSI_18","LSI_19","LSI_20","LSI_21","LSI_22","LSI_23","LSI_24","LSI_25","LSI_26","LSI_27","LSI_28","LSI_29","LSI_30"
"09F_AACGAACCCCCC",-0.158428977687423,0.466014626181915,0.630392383579783,-1.35419816953368,0.533503388246882,0.673205095983604,0.0735726085080514,0.0919301815809989,0.592794458430333,-0.2855127063553,0.067106147489043,-0.389122299037155,-0.0368847550264963,0.154217626184794,0.502071841715104,-0.069814728766835,0.0555960695575979,-0.321947399364659,-0.112095886853624,0.124438247319699,-0.0500705431262757,-0.251768154895405,0.206569013118337,-0.27676832092231,-0.378189638411985,0.284426025926828,-0.18668738313384,-0.353712479161593,0.595005743597745
"09D_CATTGCAATAAC",-1.75029419007222,-1.74024759334447,-0.279037539851738,0.886244164427138,-0.556574653491795,-0.876941149274168,-0.336492282600582,-0.185939403285681,-0.259208352808292,-0.198918589383441,0.459916687635902,0.326560313962377,1.01463689006936,0.4150105126632,-0.761429187981017,0.214043267290503,-0.2804507523186,0.0233993805840126,0.226216191750819,-0.138434069121023,0.060977539242484,0.504503253864062,0.425033541932558,-0.247727706398293,0.318295736388311,-0.277077884867757,0.1328424913989,-0.150559129076377,0.697392534599139
"09L_CCTGCCAATTGC",-1.05253667048529,-0.207820713248211,0.499622177235082,-0.060975972357139,0.229120100581407,1.22612108623165,0.328637754169863,-0.0454886898330953,0.675057124553983,-0.486295913157816,0.126074865722737,0.0226538912052255,0.0739408864386008,0.372520590531387,-0.354950367359883,-0.106351567887117,-0.464788740973802,-0.589460690487566,-0.116961588592923,0.260403233368722,0.702991378164948,-0.166977113381831,-0.0804952538650698,-0.0629849624144402,0.108599606681836,0.201023540419873,0.501935707310848,-0.651758925175936,0.8411112541367
"09F_AGTACTCACACA",-0.350830980199989,-0.869720950879309,0.553655798576251,-0.0397707519565087,0.0617763341668087,-0.21039958301078,-0.285507058277384,-0.20421867582648,-0.161237697852839,0.0476832972319573,0.298803798965102,0.166327175073223,0.13664025392115,0.00829765489598893,0.0136190746291447,0.0149940065666576,0.131428576885519,-0.0570079693324567,-0.232968016506901,-0.0885454504847568,-0.016405384685216,0.0417867687226912,-0.115826378357699,-0.0705146588688659,0.091000636090214,0.00467457707336362,0.0308623513804198,0.0704102346191516,0.0236700563372852
"09I_CAGCGGAGATTT",0.143850539221011,0.669958624968585,0.843490057627378,-0.830103177325094,0.453039330840666,-0.197349205049886,0.808363609045055,0.249494359479068,0.206273594533855,-0.578790328597973,0.715004006980215,-0.399457144384093,-0.543420129686584,0.584925004472348,-0.276744838514944,-0.435956907459766,-0.189356574039171,0.271985844928236,0.5364607864361,-0.570251151308532,-0.00683833819470633,0.635018275659237,-0.575513607457527,-0.0526036304869891,-0.0161367552481816,0.0127987794564662,-0.102107019009101,0.284612084795158,0.53649227533859
"09C_ATCGCTACGTAT",0.500115985900495,-0.201804983223305,1.02691307767854,-0.548269987447232,-0.053157131302904,0.810912573172514,2.76708267470316,0.45285445740416,-0.499411418417309,0.293250383409349,-1.0352822086128,0.125026372940908,0.850928888030179,-1.70642841514904,1.31438239985486,0.197439414454633,1.12714502057065,-2.11778755445846,1.54800712911527,1.69645353996872,0.200300607502463,-2.90955984158777,-0.400894959441831,0.0910299531500459,-0.0928580910316247,1.69222611203997,-0.315402419959126,2.5963634698287,-1.30760567307052
"09B_CGGGGCGTCTTC",-1.38115912932641,-3.71932693876594,-0.116288988161498,0.486789821329292,0.207662424179264,-0.527164784019289,-0.420936348953298,-0.856914154185886,-0.351262693710945,1.40821851058905,-0.876284566148423,0.21423591217622,-0.651888723353456,-0.188863343357108,0.448575348522862,0.595736169645092,1.52305767139958,0.131258474021064,0.707330526221069,-0.284243158239993,-0.103890644095856,0.0373764798620598,-0.27898683696353,0.430926551074919,-0.340387724614974,1.07926980749604,1.68196449648824,0.853676970562812,0.179318849191705
"09G_ATCGACCATGAG",-1.48652980930057,0.138968357780882,0.212383834534474,0.0148157310623456,-0.382176809665379,-1.0850184720076,0.311606097197809,0.424689203018147,-1.40307198452529,-0.0399049178115959,1.29101583099198,-0.128167700508126,-0.133699153383051,-0.294406825307999,-1.07585606952768,-0.254343465187688,0.93014062393579,0.452889757536273,-1.27861003476722,-0.276381341943103,-1.39759456020606,-1.17781161042537,1.55883045000245,0.26526436742027,0.272242576185374,-0.227948469303917,-1.40656670634177,-0.589198107566088,-0.499385234412397
"09D_GATGAACCATTC",-0.288517846482654,0.300795456563293,0.299699699103263,-0.328383404056102,-0.0883731479191426,0.214605414817425,0.146255931765646,-0.00523320700486227,0.146953770931917,0.153241095373996,-0.102770431334667,0.0501117354811122,0.0982962349269761,0.109076209971607,0.132962597085593,0.0327866340383753,-0.0445189909729384,0.704938149820608,0.363297934071423,0.196118641591429,0.0950092373087496,0.0341380627487408,0.139275249687605,0.0511515674547068,0.23362981760641,0.000446842790374301,-0.0932021683420802,0.0455211415217184,0.0593845128061858
"09G_TACAATAGAGCT",-0.398924594726863,0.118221570720343,0.676746865684897,-0.0947911178222303,0.0208514173565971,-0.366588383414172,-0.288470498699214,-0.198122890508386,-0.418074186110836,-0.112331414987358,-0.0041494702659421,0.172940221480941,0.32000288471043,-0.266189824667547,-0.137655865031177,0.65483688109839,0.0535112932251096,-0.323114491739643,-0.729827857683175,0.0948666508070839,-0.249151333004523,0.468118656817092,0.291404311130105,0.00554595439576259,-0.240179013018345,-0.143141389730459,-0.365116068322991,0.184771617179785,-0.0789678801158319
"09K_ATGCCAATTGCG",-1.03401749522878,-0.048524972451745,0.584396127626828,-0.635584615014468,0.0217225636073776,1.25367090606555,0.241007447998706,0.116720187807141,0.565674954702828,0.339754198909719,-0.11762547240871,-0.04820845709096,-0.127778285677345,0.185377971640766,-0.202152421085947,-0.560463534041966,-0.382675577384686,0.197628163783451,0.617347907865349,0.0343954627301819,0.0530262109773051,-0.0439534763512403,0.250756695405968,0.463471180699848,0.488397541859665,0.324783281736065,0.28636519884469,0.213028493556333,-0.246611299170196
"09B_CTCTTATGGCCC",-0.687499095266494,0.107328913340921,-0.00585039584966194,0.4343537560074,-0.151945175169386,-0.350227655775679,-0.0196588932194238,0.126583266301673,-0.124968195580065,0.217231199715766,-0.022147486629328,-0.0809008850529067,0.0911476017073206,0.0173166126033902,0.138343462898931,0.210693075506703,0.132014908694701,-0.0328799720553425,-0.298426333238556,-0.0129978321106616,-0.313113809602588,-0.188117309516922,-0.166601286733453,-0.176768566483539,0.125958986748738,-0.233570145277445,0.160379250485924,-0.0769326103844683,-0.0558772782766083
"09J_TGTCCCTGTGAG",-1.0666862142365,0.348489100123308,0.659391222739133,-0.570981518529417,0.440037689479449,1.72414544733141,0.405642478645929,0.167925368897678,-0.46750631153948,0.0769245253434738,0.662705025849485,-0.245816157838493,0.410575123649819,0.255447428175605,-1.22870727021095,-0.036386563988828,-0.0165191624432585,0.547483356996537,0.37677414302109,0.060279912216234,-0.0196199738599321,0.295088788450086,-0.507994668264685,0.17537739119719,-0.473559507160374,-0.24835455044917,0.439984399203667,-0.275845580248699,-0.0152826328582476
"09I_TTGGAATTAAAT",-0.280927379994433,-0.429918708676789,0.876784682207322,-0.272991900255187,0.0690894804356654,0.191848507282233,0.22120711771134,-0.21484986850127,-0.243483252789133,-0.0525128333016121,-0.439960401046742,0.192331374083606,-0.116640954096003,-0.404834529142864,0.059785203256925,-0.231692236404416,-0.472826403113451,-0.237290832696629,-0.535032072933484,0.133289417781416,-0.224549509525419,-0.3581534400053,0.0737324244150198,0.135231145494358,-0.135586322643008,0.0880084392166174,0.370736500370586,0.198959768661628,-0.315292344994508
"09I_CTGGACCACTTT",-0.184353715848416,0.106789074513845,-0.0273567954849947,-0.456471948526279,-0.0259793614311139,-0.7793757959118,-0.305933571096111,-0.226250515632284,-0.019026941864886,-0.420172602779498,0.0513418372009666,-0.00399358458443482,-0.194546455400259,-0.034203071560682,-0.0149906614169109,-0.142204178981804,0.0529960717490082,0.260932636524078,-0.277838234001869,-0.269768379441706,0.386216955664273,0.104373383434088,-0.0206382676261321,-0.321579644065331,0.247963877739333,-0.229206066187741,-0.0471020213646485,-0.149235663051902,-0.032068717738033
"09A_TATCAAATCCCT",-0.992210757450242,-0.29346062901387,0.650566169260196,-0.556309305510166,0.395387601442365,1.08564966437219,0.0349321524259178,-0.860283727572128,0.122484736213788,-0.646662910436118,0.847775928030184,0.18019551864732,0.12848495148266,0.261016517137524,-0.307476172969418,0.0170489035195307,0.125185772391802,-0.215868200585197,-0.228651553176975,-0.059231257728973,0.124033055684217,-0.337288229498926,0.690766471240422,-0.390000395879177,-0.276356641380503,0.125579153141662,-0.251575927468564,0.393077397727936,-0.688220921171324
"09G_CCCTACTACCTA",0.463151661621667,0.46212602831861,1.09116195590589,-1.68197378378399,0.563709004536816,-0.518101566749122,-1.05984641457105,1.85289303682688,-1.21274951420547,-1.74192487671054,0.217543981671437,0.142750467218325,0.973508592230229,0.0558186728251362,-0.276409961848111,-1.31813285207801,-0.838765907681078,-0.0273687116229572,-0.209413340623673,0.774752334401605,0.550812928282274,-0.90062016933786,1.73553296764621,-0.484589403129942,-0.556893057222816,-0.283679810699872,0.248714200268137,-0.509978159460632,-0.349360719326045
"09E_GATGGCCACGAC",1.28859982610369,2.47368491726207,0.26973489050068,0.624486171012231,-0.189302946432242,2.57165025226397,-4.36632696641396,-4.35696045196957,2.28750893892669,1.95238753064067,-0.870367063575834,-2.54671885529011,-2.32411303058861,3.37516426953243,1.21479531883606,-4.10505005911446,4.74535819230955,2.56588955375325,1.90773684717831,3.04072883115901,2.10447075873411,1.04556137564589,0.149121930470638,5.78770982222981,-0.0418729736487243,0.536943040624957,-3.0674836265658,2.12490251185122,-3.81658387359114
"09E_CCTTTGCAAACC",0.667280337755041,-0.565915083025645,0.587887957648576,0.551487962535712,-0.345757260808851,0.108954979542194,0.220759391044218,-0.242536646402177,-0.287211125162795,-0.285786024712021,-0.305234160460534,-0.370343328423538,-0.273995838157452,-0.270307430491625,-0.0347132802464092,0.0571004255657869,0.391041921470913,0.13184810311763,0.1359645259359,-0.315932069247014,-0.0568897910637536,-0.355950761914245,-0.0103004714165736,0.103942928764183,-0.338943849954534,0.346219430647925,0.274960605937254,-0.172185274573496,0.480681876747235
"09C_CACCACGACATA",-0.120691100336989,0.318017103486236,0.101948578545844,-0.699372785452059,0.432426949620744,0.314449240365769,0.533499750620253,0.824572872932001,-0.223983651747739,0.129835381171232,-0.104702623820734,-0.283491427092215,0.161010358684581,0.165589509976294,-0.0943564384484051,0.0483723821974947,-0.255842701873219,-0.25395648049009,0.236907847740075,0.191543213310311,0.0816270127600778,0.164802687496013,0.063519378422167,0.100642916510555,-0.12777007597814,-0.00256954356120687,0.164909183816433,-0.0894204701677518,-0.219702915269755
"09J_GATTATGATCAG",-2.06871104684966,1.33071815531773,0.69798882411412,-0.124061077454516,0.534983691511006,3.78445808072715,0.568269683468995,-0.367108461540653,0.296518616288245,-0.467799072531298,0.710457618877579,0.730566087452504,1.81508481501133,0.0320412191130807,0.217152849201674,0.338332155467409,-0.141311136693439,-0.112309363875371,0.0507207338501753,0.641578310757932,-0.388786903252153,-0.610315443608275,-1.4180955474821,-1.01189343403361,0.410765056065957,2.22953799005515,0.826936195387451,-0.261076026381087,0.746417249416415
"09F_GAGCCTATGAGG",-1.60800603688161,1.87533332984996,0.303537596916707,0.261442287703865,-0.0279304642122263,0.464559603442076,-0.0479215541891163,-0.101457810230086,-0.962642276475593,-0.223033076981302,1.08668469729512,0.536854366856244,0.509678562490883,0.313562192720712,-0.020609435102524,0.552887153495918,-0.498123040907954,-0.548682885979378,-0.09611554396121,0.255801993160083,0.156096411940211,-0.402538649820255,-0.0430047876302306,-0.553188585572184,-1.18880105304513,-0.599578261854211,-0.672793716218224,-0.971057647420199,-0.402140908482249
"09D_ACAGCCGCCGCA",-0.58019259003444,0.145062180135833,0.475938813567692,-0.584908098935219,0.00472472217780526,-0.0869114713172073,-0.140347047620584,-0.204611715823991,-0.0478866752638499,0.207040016272027,-0.00780815450173943,-0.265443281217752,0.0124733784304673,0.0276036231290432,0.338286855064481,-0.179513424000458,-0.102551942424246,0.696588070529088,0.0497462485473335,-0.0665950400952216,-0.254785898061816,-0.362806037352531,-0.0220740871697303,-0.0848257798201969,-0.162308230548497,0.0264490321349683,0.111140944166668,-0.258078976807521,0.3519700415
"09H_TTTAAATATGAT",-0.869662821023503,-0.152920220146523,-0.586587160931973,0.170568284642795,-0.591952018903995,-0.456845818684511,-0.0374981634675816,0.33184492769071,-0.0842027145166079,0.371717159081453,0.24289063199652,-0.0702407578953808,0.319626736292869,1.17556511945745,-0.436961224091076,-0.698380700906007,-0.463108348839624,-0.398084886717275,0.223942120469911,0.034649296713298,-0.238277080659838,0.16787120945802,0.517427488894387,-0.44420480642146,0.502477048860876,-0.167912368011549,-0.527713132403118,-0.0772063359490138,0.235501026135935
"09K_ACGCCAACCGTA",0.0786307330186711,0.191737098462054,0.200665632658759,-0.119629317525562,0.05688231718819,0.845180737936553,-0.915255235355782,-0.04027631055099,0.0494925259872172,0.112950873859136,-0.0970320329144392,0.086895191064724,-0.340739285691378,-0.187892855396653,0.294980222505658,0.409617028334377,0.328036551752514,-0.296297978217285,-0.137991715691285,0.0445847106125292,0.145525550529767,0.160418002313313,0.345806144745901,0.144751029451722,-0.0333864782586908,-0.0711836794100952,0.186077129854102,-0.557180951304789,0.207731660601784
"09J_GGGTTACCATGG",-1.46132417127391,-0.963372808396934,-0.998900653769076,1.00900654366689,-0.333875327142454,-0.22568734912417,0.154484064975001,-0.375849895567191,0.123107605366859,0.165507115857469,-0.0831877748374321,-0.677103119846964,0.0808851728003948,0.170847066420563,-0.018606155120085,-0.296033680740453,0.269035012761285,-0.139312059249633,0.412248427529593,-0.616004070620242,0.194536649029113,0.388145990290903,0.0606774408715484,0.0339991517149577,-0.32427054107861,0.679472020450335,0.218074163746006,-0.192663892994508,0.541843346551333
"09I_TCCCTACGTCAC",-1.72787438184629,-0.890693162849972,0.0262488937618043,-1.09657814965249,0.793712202299277,1.23605171337195,-0.949465598415697,0.477054419524734,0.0643940827989534,0.0582557729907151,0.176732462067914,-0.154485137132176,-0.420818478105864,0.373359399577526,-0.362231548779243,0.554011015481369,-0.332264793636007,0.155718979934863,0.362467842273966,0.896046952754243,-0.01682020611644,-0.16997061404024,0.0244947355999192,-0.531104943676441,-0.068633207340886,-1.6096730468944,0.29050972031611,0.824171104731398,0.218362123032296
"09B_GAAGATACTTTG",0.164325090711544,-0.451706258747111,0.567944282436823,-0.377906932125434,0.117880265971805,0.142094638542361,0.0538271068663588,0.148102155030859,-0.00159530334275814,-0.267349805813242,-0.138212560476229,-0.0300047051303853,-0.313011170172316,-0.193231048842744,0.116627045350724,0.0410819587197356,0.036500634711678,0.331742168202068,-0.262007667568883,0.0653578059762399,0.116927580743186,-0.0139763502154074,0.190811395515686,-0.0116436679384619,-0.335932636272036,-0.145868074954611,0.32321813075824,0.232230250706949,-0.123239892472411
"09A_TTCTGACACGCA",-1.6888889438706,-0.0476881197642766,0.13652877611871,-0.426664641995609,0.716829515378998,0.701045049423817,-0.523120038503477,0.836759392828193,0.00656181553284343,0.428483807327412,-0.73889076130913,0.906304624576885,0.555003607419544,0.775587702827147,0.581473690491165,-0.176754170949796,-1.15629800319247,-0.845143755725636,-0.190172408661731,0.183951863842342,0.509101805912163,0.236443527289528,-0.799833341851211,0.571671114603438,0.654246254189977,1.33415104094518,-0.619363869341265,0.180718741773268,0.365014834337327
"09C_CCCCTAAGTGGG",-0.579764891138679,0.265097959641268,0.343032644678556,-0.0592719434805474,0.177343629011318,0.612854910033386,-0.137655534770214,0.138881103682309,-0.0329849943419702,-0.226767469396024,0.080412393939862,-0.0437586714041919,0.163058458332871,-0.137199651477597,-0.248895759791638,-0.0919865109523844,-0.337586242448722,0.0840064821384418,-0.129003969563394,0.131672307549802,0.119247072231413,-0.108687573503895,-0.0284592380807581,-0.281020567087836,0.219438515453799,0.0863464474045064,-0.269584643282407,-0.368474939653367,-0.11718788460344
"09B_AGCGTCGGAACT",-1.02524212141617,-0.335562269034067,0.792347079161885,-0.437589428969267,0.245326212568877,0.272671353999286,-0.0622774341119713,0.0235178095433143,-0.316066045070438,0.330889279363609,-0.0477642776031433,0.552570534724785,0.212151184568645,-0.365407036584481,-0.252191501734968,0.0891318454259695,0.236253802476382,0.487153303934059,0.802353199546835,0.238842085750006,-0.132375491683298,-0.461727983441939,-0.185396612243596,-0.535518257466674,0.304302291050073,0.661891311496273,0.832711261671069,0.530354811496546,0.759299974391932
"09G_TAATATATCAAT",-0.220471387121083,-0.0371151338985506,0.589850403061383,-0.178050909505556,0.0226283112091649,-0.320315571001798,-0.0571233858572624,-0.0976274610407129,0.190847294302318,-0.0958412603580684,-0.419433045540801,0.125123747176472,-0.163091609251242,0.0504932106376131,0.0970619651274782,-0.167331264620855,0.383877874468805,0.288996882975994,-0.263663200205687,-0.0402428467590588,-0.0891168318984454,0.374072752754375,0.283537814625343,-0.523616346209676,0.107307774582467,0.296442075838914,-0.124034620159039,-0.348394500677023,0.487903959415372
"09K_AGAAGGGCTAAA",-0.244157344561288,-0.343848478569663,0.54190792554497,-0.0308223311510841,0.61935066579306,-0.121922430682394,0.552637707152445,0.195248343839189,-0.933730439275913,0.31832345417639,0.508508945288714,-1.16875788242349,-0.269815644577516,-0.205952261577163,0.233703378027339,0.192644646190811,0.233931420763844,0.173831636698845,-0.294748544048581,-1.15794412182218,0.614532108902645,0.724979112219296,0.143523526956689,0.260605763480039,0.439371602333397,-0.544732112745293,-0.295061789067851,-0.588763267914589,0.716457948733021
"09H_ACTAAGTGGCCA",-0.58246634949637,-0.992854038852943,0.424398480896063,0.0452645360309209,0.0797457322135608,0.374608830028976,-0.628391369448476,0.167131462557205,0.109774786948472,0.20011312372276,-0.0614581625179655,0.0993272446809521,0.427794550895083,0.204012529189897,0.355783843956328,0.0542433690564961,-0.184584023039246,-0.0606246103750964,-0.221294971415699,-0.362373227984637,0.169044572575562,-0.068882938454534,0.307412663941438,0.0370281241464641,0.456731196425009,-0.0260376173586709,0.0787617537122081,-0.520196154441599,0.0578204783051629
"09G_TAGCCTGGACGG",-0.0264616584665881,-0.55778113987269,0.886537228688049,-0.292747961937213,0.232182727755319,-0.241525865796616,-0.156671780241334,-0.0994844266239712,0.181562465400142,-0.336431720935409,0.235781679195267,0.208189586661607,-0.0764761918970238,-0.235838918507768,0.187722127803793,-0.107624041146076,0.138719109647887,-0.065348795014174,-0.1219049474529,0.0321297058094189,0.19149452271003,0.082917891482377,-0.122586938835637,-0.0336537539042703,-0.109196233352197,0.184597819012229,0.199365820837587,-0.0769192737741479,0.237766503595848
"09I_TCTTAACAGTCA",-1.52777856159091,0.682046964291835,-0.246135650006678,0.604595586752438,-0.458255391761188,-0.239710387085285,-0.340561010296281,-0.063882136855652,0.294389745499047,-0.209750120510106,0.197713032614638,0.807530764925728,-0.381353278312876,0.430253401336632,0.24801697231302,-0.346948493403298,-0.199654753720531,-0.113336043806236,0.00612207593376424,0.481892735955049,0.0659943042170145,0.0835573707453861,0.196224071446188,-0.350552517683509,0.10754314890132,-0.129350478661264,0.203238657813966,-0.0428030505765951,0.112509120837035
"09C_AATGAAAGGCAT",-0.251396830765731,0.201578377592422,-0.00231837297066824,0.0103819419513517,0.0331942390897061,-0.00835404919239989,-0.0808352170522972,0.0480324817074499,-0.0713106736162738,-0.224016046975725,0.125480054229842,0.0923892495797492,0.183570458121344,0.161088336920674,-0.0518167527276684,-0.00599607114036604,-0.276029973539965,-0.178398904736356,-0.395700722019081,0.0431888811585817,-0.345949388794039,0.192225910701341,-0.199536578032076,0.108799850258228,0.116477893187101,0.283832986130516,-0.0584370245969964,0.0420507736678367,0.146872721677766
"09F_TGCGGAATCACG",-1.66008550011966,1.36895042948645,-0.483476290172429,1.56572310888669,-0.818449145132819,-1.39823184877498,-0.0169941183217282,0.122873045515,-0.0555143869694462,0.380025197831944,0.0749296000299223,0.534107853680662,0.308721079473876,0.436753540381094,-0.195788189256536,-0.493661370431267,-0.229055650896056,-0.0115663701942059,0.0409866504214302,0.840574059689009,-0.423314889812005,-0.265835921023814,-0.349517541307039,-0.429183581166649,-0.370411318953866,-0.287001689146829,-0.113543329908658,0.0569800345182131,0.246194276724424
"09H_ACGTTGTCTGCA",-0.460805654587375,-0.236161836308917,0.276798781458158,0.291411451807622,0.0706799088426019,0.165577426868471,0.477347437316565,-0.0929900605862038,-0.131001938843889,0.0903274404218059,0.11844170029685,-0.0228474597479902,0.0719148278882529,-0.127867055933554,0.0380803091889972,0.513042267229776,-0.0794996898957647,0.134017620734507,-0.0228867773968346,-0.590280492649711,-0.0539295518513424,0.250785304174631,-0.0109764429801673,0.0297083669979422,0.293437624560104,0.0760640849620651,-0.364217033776214,0.0471622575213484,-0.267483919973956
"09A_GCGAAAGCCTGC",-1.34314368012719,-0.787934715628454,-0.622363531058906,0.759701676340526,-0.382554029540083,-1.22967815499628,-0.455881626269852,0.388284694346249,-0.158625873102836,0.450824859627159,-0.820333729464608,0.193545408078624,-0.177085237945721,-0.795352376212424,-0.675605248840584,0.224565223017501,0.251160282976234,0.00506341701216624,0.158939769262974,-0.774537278012278,-0.360240909361725,0.248510322514742,-0.332091397963335,0.493977965225805,0.68699260146603,-0.0574037129395187,0.260829091678828,0.217309314452662,0.103570708003807
"09I_GGTGATTGGGAT",-0.549298715432027,-0.919518967693647,0.76218699885816,-0.106276910435475,0.334983179096939,0.363371560866931,0.42387554971336,0.0178961540889204,0.700482944238024,0.271839263548992,-0.0692494728018796,0.329517237160345,-0.0465948572126376,-0.0966917522854185,-0.266980758843833,0.017776793725428,-0.0672528947190726,0.0962006236691993,0.107781153963975,-0.0507209275040095,0.324795760873679,-0.0336257708031865,-0.647426364857024,-0.116772250123966,0.231175398382783,0.104585591963726,-0.00853013770894968,0.0987950539635169,-0.320276058884173
"09J_GTCGGCCTTTGA",-2.01375961418236,1.16269210193106,0.162147719253138,0.456061652837152,-0.0483084212644996,0.377818106942537,-0.16998672923026,0.154595034272938,0.445939961720557,-0.269806879044784,0.751960475221827,0.878321980065611,0.27319827457093,-0.544586973174524,-0.863841000351853,0.376060866675449,-0.373700560864612,1.13232779048956,0.306836891436117,-0.142579005494129,0.707536304719516,-0.351173751415991,-0.850393627257112,0.677061743646382,-0.593837523348223,0.921158522301495,-0.408880424013535,0.456859668463266,0.351217124512579
"09L_GAGAAGAACATA",-0.796390265166502,-1.61610984276398,1.06443527748174,0.3950118233584,-0.287062228194487,-0.260838276674016,0.198201732118954,0.0199114880877471,0.0303083290084549,-0.421344722294692,0.256017043110296,-0.0626854316642993,0.172846709288043,0.352184529595704,0.534267681822219,0.164975370534831,0.0190929431755893,0.604131835555936,-0.0381499752378262,-0.0506538898960336,0.485658967858561,0.341226853214588,-0.408212165843758,0.552270780040317,-0.146690135366795,0.271968606214897,0.233806879586011,-0.530153015966855,0.0730037634453178
"09H_AATCGCCCATGT",-1.64721902885558,0.0362976325578847,-0.0887458466063262,1.39353186794475,-0.523786885870547,-0.299744204147963,0.96406508488301,-0.951866078777659,-0.180230496743461,-0.0373046929318025,0.0988320315028452,0.0626297194279767,0.157348507366983,0.279451116822343,-0.611729846980922,0.125665574450717,-0.110911804775742,0.266317910106634,0.461483312758432,-0.845383446638229,0.0466137738805,0.965009748230051,0.234175245483729,0.197249651678996,-0.0609687320807719,-0.448688788407492,0.0302137718446742,-0.576949998614689,-0.0688596010038613
"09G_TGCTTCACGAGG",-0.931627692155635,0.0273015750905941,0.417545806885362,-0.766590253023968,-0.0797427498770758,-0.522322494710709,-0.76466467074521,0.352247080320821,-0.414072512571447,-0.588553042342553,0.553433809620593,0.377796418283964,0.319906806724365,0.387750439887545,-0.279803253553734,-0.389551685805876,-0.450054357941167,-0.0433256620808459,-0.438897220000406,-0.447877838750123,-0.751810602536782,0.196609310595355,0.0143367318728526,-0.730871552099224,-0.380795056107125,0.0421030569764061,-0.371683784603037,-0.578533624209965,-0.448932652629961
"09F_CGGCATTTATAA",-0.536078203762533,-0.876108036646292,0.344669929922403,-0.181605759330563,0.115420019649364,0.212253269999468,-0.186653719189474,0.632388507037209,-0.239662452064488,0.0148096590948943,-0.368509571848156,0.279174245398644,0.0476657353310215,-0.0147528789005968,0.0654727877042704,-0.167548534409282,-0.189553867756161,-0.0360815159783945,-0.0702652489830287,0.106141833906632,0.253474946937085,-0.00559409705790557,0.131345013279323,-0.269805735909111,0.114823946744378,-0.0353281528087593,-0.0805837094615966,-0.0363518170489865,0.0774540982711537
"09J_CTGCAAAGCACA",-0.731546488438712,0.0662205538959018,0.527969061869014,-0.6895851414219,0.29315413836475,1.20653480034827,0.0215242618038842,0.0148742230179241,-0.0660509488864918,-0.21243479428892,0.928718358210258,-0.333736465452084,0.452693334845098,0.217566595488248,-0.510709252398881,-0.441877409466749,0.333139857876738,0.0554087861810125,-0.274868457216705,-0.749192323726475,-0.0356800020945717,-0.899229261012655,0.596274399082115,0.142658376082401,0.301881682857854,-0.364295656759167,0.155831661719221,-0.934549195934885,0.0960698153055796
"09H_CAAACCTCTACG",0.383450971531941,-0.431922927596237,-0.746321538049688,0.293627440301046,-0.0756734771151481,0.540281486816451,0.184923430074799,0.346169675292794,-0.014734107069515,-0.377380689763826,-0.0373688568283976,-0.314141856801323,-0.182948076753265,-0.186592412317697,-0.208357278638166,-0.113136164166049,-0.502825793739298,-0.0931533923498315,-0.0059365885296745,-0.0392354839550516,0.129076371844852,-0.249154565881175,-0.340384234286135,0.325099607832376,-0.173718935895404,-0.0795769637783804,-0.159011340014158,0.242346510992526,0.415459711464864
"09I_GGCGTCGGGGTT",-0.398815380419509,-1.53801273921578,-0.118704771878743,0.0536382769494901,0.326183743460548,-0.847640381369356,-0.280943504619538,-0.230658735046078,0.0440805895818106,-0.00793227761928696,-0.342573809065135,0.0985717003593315,0.105693777168823,-0.1706440647635,-0.100589406558027,0.201333621140047,-0.21222482488729,0.0773005716033891,-0.15445668684908,-0.114177309022012,0.458005713086194,0.269035920703625,-0.162512883096729,0.192550257001512,-0.414090601695883,0.0132307204326845,0.0970544834929758,0.499052833035839,0.0504211648740374
"09I_GTGCTCACCGGC",-1.82839306053913,0.350298490675438,1.21544053425093,-0.0455653569260033,-0.0392698369490803,0.368167853302511,-0.243461410632323,-1.15639547163075,0.227981713312993,0.0721120634259826,0.201012882338253,0.194604524873491,-0.059715493442174,0.351768338193891,-0.376839800473267,-0.39571875149279,0.208690548108798,0.146486524459267,-0.751072075065786,0.0542219282418077,1.19129314874936,-0.650753964450738,-0.0224667637095132,-0.371862693020016,0.23095212353782,0.68829738029502,-0.047791149620249,-0.551802583423383,0.277012994566478
"09E_CTAAGGTGGCCA",-0.512984867948305,-0.256434914449966,0.306554705868258,-0.30995580438419,0.0555449473052873,1.56272707922788,-0.219301990427591,-0.121984592707406,-0.0140983162652746,0.269599123561221,-0.105130259978315,0.0647807074357573,0.0494778005907907,-0.0694703499630622,-0.16550245864763,-0.0235784467749186,0.300856676015632,0.253139413799849,-0.479329621273296,0.168288164536057,-0.116361995010309,-0.575423947048027,-0.329442519414633,-0.0522740241616371,-0.0718483183532911,0.159850511379524,-0.130861195508981,-0.0532296814119774,0.299197332009688
"09C_TCAAATCACTTA",-0.083745212752622,1.27820391081063,0.207127795591563,0.724611999305577,0.0465455932650558,0.764657875371963,0.743069211805,-1.04716638624051,0.269537979611292,0.346119996687646,-0.000326638811655678,-0.674586544961521,-0.461156612843239,0.013652228504482,-0.966361733808894,-0.242536547224821,-0.521318743984387,-0.32960306281933,0.339747377642784,0.0706986067867287,-0.189134943644971,0.180018907427047,0.716136324477202,0.490248795507666,0.268827103802701,0.718449187631227,-0.672151823572528,0.545871260378018,1.03739480705571
"09F_CTGAATGTGATT",-0.947641994848519,-0.468607030026707,0.610605970807265,-0.914132326269718,-0.0506021091975784,0.487638903598609,-0.547073742207684,0.291747606093858,0.1120128024966,-0.02223400608619,0.515947683964848,0.196712252820644,0.217095185322989,0.180217446286206,-0.44762994134833,0.0681313416182084,-0.310722596107182,-0.363101309368356,0.220162212631707,0.0386672685300855,-0.0277644627928307,-0.778583660850515,0.379662584626867,-0.270654093738192,-0.206160968159896,0.172981343701778,0.453608473031493,-0.214399521383142,-0.544246317569504
"09I_AGTTAAGTTTAA",-1.06510073576759,-1.51432087113828,0.446050560941495,-0.720614738991493,0.43765200847173,0.42929159156761,-0.520030750681392,-0.186496008973824,0.0180937505928821,0.602939339510728,0.150031896640727,0.127680353426044,-0.195214184657558,0.56214083577426,0.354006829195471,0.0335878647949509,-0.0560087362819095,0.234842666867063,-0.142851711483068,0.390824368353891,0.372514400269045,-0.716767898306682,0.189519953898236,0.0666769524995796,0.113850567453504,0.201357839115072,0.280000671836656,0.787066233143308,-0.0493999804851243
"09G_TCCCCGCCAGTT",-0.949276403140018,-0.396056935357942,1.32225844162757,-0.170428123939738,0.272158505676947,-0.391134434901757,0.0274837426845111,-0.199898979494775,0.141557707583405,-0.54043893679599,0.541643469894537,0.0239845853089525,0.398277697108987,0.237198048652608,-0.270343563074944,-0.443621489180985,-0.141583769305142,0.460919228573085,-0.371528596856829,-0.103430216202797,-0.147031083315623,-0.160402542904844,0.118725075274229,-0.0942631440152647,0.650568582621509,0.299941726684079,-0.339705571936585,-0.528702754504687,-0.10233997559997
"09G_TCTGCCACACCA",-0.851728036353659,-0.0797053252121354,0.379851032809448,-0.456977341753907,-0.459879592306299,-0.602464006110773,-0.133751924803265,0.395817253778325,0.204677453600157,-0.221219202496195,0.12907068761012,-0.178314513475081,0.0768368909442789,0.140003676914136,-0.138351880944424,-0.0757941789987594,0.225796042648333,0.272426372534553,-0.689820006543375,-0.564389747704005,0.273972354604221,-0.367168024236455,0.261242058714434,-0.78244393897956,-0.09116773964456,-0.437507230658009,-0.271855768393872,-0.461044169899994,0.556666783781058
"09A_GCATAACCGGCC",-2.31601408719573,-0.406783615472474,-0.767642656011345,0.397139147244979,-0.429578563100541,-0.864224471631652,0.712131673615278,0.123081401979228,-0.0646098519541325,1.13082955156359,0.17483332717745,0.680221478863983,0.795128012653751,-0.766569602368494,-0.216391555470924,-0.13118318988409,-0.610129853330534,-0.358384456718888,-0.0280947610875719,0.321325847593091,-0.312719624960078,0.610318736877437,-0.504282419026626,-0.807682562553404,-0.840402635543519,0.502258674611684,1.91732799004411,0.199388746214291,-0.311260230865838
"09J_GAGTAGAGGCAC",-0.476424648344218,-1.3273229406231,-0.312890492413556,0.00767463903322371,0.129023035225407,-0.513620505018397,-0.288933168558723,0.18054554388454,0.196814564025636,0.11287181247713,-0.175762810730282,-0.461894122688976,-0.238688013616429,-0.273606781529376,0.0868393123742515,0.0674606849973651,0.272633563628512,-0.424817227675511,0.475126947415998,0.0820230823059542,-0.204131156104377,0.282468504833334,0.00638367712922323,0.113682393651248,-0.00754409217257262,-0.310317568822814,-0.171444655071842,0.131699643705083,-0.0309624211622266
"09G_TAAGGCCCTCTT",-0.557768518008274,-0.508119623353605,0.241160735315846,-0.131457746965336,-0.188995202861082,-0.968449270218707,-0.245154189139584,0.0863862481040089,-0.210843927652847,-0.277784652180707,0.515609036125202,0.15082548413529,-0.124833473273028,-0.326163065618492,-0.0016974862983944,0.176765817214464,-0.00539546127872234,0.169534154804601,-0.227634224719344,-0.147655869502637,-0.186959931761504,-0.31570323997526,0.11691853731007,-0.136857716364408,-0.0985777234731571,0.111323088316422,-0.289391818757334,-0.0991377633862229,-0.183035106862101
"09L_CTCTTCACCAAT",-0.350494965425833,0.498162508742576,-0.00436504000252808,0.226753588213592,0.00757342230141715,-0.16559673632566,-0.188521078559012,-0.159142082322923,0.0641637585338144,0.00540086254439838,0.0618244487670874,0.0748794046788958,-0.0594859066949402,-0.00444031009257933,0.157220302279089,0.0997862193232312,0.163406060336734,0.0966728363194317,-0.256152786035516,0.0884711813152046,-0.0355559813844739,0.105060637763985,0.0131006093211928,-0.140018742843083,-0.0205288701487745,-0.0454611845780312,-0.0586058032643265,0.172379275221601,0.185828945130179
"09H_GACGTCCGCGGC",-0.661310700416772,-0.369332763823555,0.513794364201855,0.134617971521697,-0.18104880875762,1.28318229319977,-0.282324516201851,0.189334888421532,-0.32429040898321,0.181169992164027,0.156830363533345,0.0584464380264785,0.261865198316348,-0.244021715528161,0.259412003103548,0.178009413676798,-0.0636412497999297,0.0902416743352556,0.037129811698398,-0.46240552275235,0.505727761412444,-0.179161699359885,-0.289894766544808,0.228935781523021,-0.397485777295995,-0.255601044033929,0.294098361218026,-0.174153305830947,-0.2578128269623
"09D_CGCCTATATCAG",-3.43576324770787,0.485732993513752,-0.466223248179344,1.59297367192759,-0.130293236861706,-1.24206269587413,-0.234202990509542,0.0583232812403816,-1.46724209660603,0.937839290880661,-1.50313784781531,0.663322905671344,0.170380360238921,-0.495773417883241,-0.891196849223172,-0.174796734448882,-0.439467862321625,-1.1272728282044,1.11120422146761,1.92667799289768,-0.195575672407473,-0.0428305778089691,-0.171267013700262,-0.43112161166717,0.0550944230723097,0.010555107733501,-0.191566446574287,0.303886357608767,-1.55034586040524
"09I_TAGGCTACTCTG",0.198668921874812,-0.215170376595033,0.544170643375009,0.108302305012738,0.0278527289601084,-0.0266837843748299,-0.0398669704243269,-0.397282649940779,-0.131723315859024,0.149861848864397,0.308410333654531,-0.165085330859631,0.0553548197692921,0.326766037831423,0.0264846007740042,-0.0711804283733894,0.526611835425382,-0.401093972199074,0.290730838876334,-0.281735214874403,0.101437372584607,-0.181153068958512,-0.0245056440982016,-0.205058710287477,-0.109393021859288,-0.205216789668567,0.122932235311263,0.0271543736671345,0.790022397329428
"09B_CGAAATGTTGTA",-0.709519313580088,-0.689039854385502,0.171828748163098,-0.337299748449042,0.668337450546845,0.983216954380413,-0.244512909153168,-0.176707668759675,0.388971093816879,-0.186045213586204,-0.345442810994673,-0.0378856988025741,0.215797120162332,-0.206395110169779,-0.0778302423081166,0.0860974842788432,-0.741344802525261,0.178739392399838,-0.125426185512517,0.572193621941542,-0.129202724091327,-0.18767404837897,0.082643741792304,-0.0629853047501105,-0.652969868213058,0.398281168163463,-0.382123499248526,0.0352054012403472,-0.22959117048465
"09I_GAACTGCCACCC",-1.00048675420652,-1.37771798402764,0.554318591818183,-0.957954253429206,0.356572531168653,0.676679876166855,-0.347408632968732,0.407216342472244,0.126007335393296,-0.144712192713815,-0.560251241304671,0.610881005863647,0.0824967333951195,0.425912992826856,-0.229312782666385,0.356933252820454,0.0908064806173324,-0.117098484493697,-0.133736647819394,0.289292347340389,-0.5541493564817,-0.38125502281069,-0.232906949515074,0.636571472016091,-0.364311037038447,-0.354214366482028,-0.131273716186699,-0.155787603693055,-0.114706926727038
"09E_AAACGGATGTTC",-0.500413756573552,0.421079540648797,0.162341776803268,0.0702591170038935,0.0481747943708456,0.514582982979585,-0.0474280414907423,0.0544368521581858,0.102771977024867,-0.087412827969424,-0.107511698410804,0.119682031447448,-0.0221734562988034,-0.0898790846169737,0.289150370800295,0.144053270944974,-0.285734702563268,0.0863457472317026,-0.112700330135161,0.106471901967857,-0.043725566122568,0.130065581445688,-0.334139959749529,-0.0323672402913347,-0.0263065680948047,-0.049959656062898,-0.155017163712155,-0.210753744368615,-0.17071770860831
"09J_CACGTCCATTAG",-2.26610836893723,1.35116183837163,0.261676908176256,0.574713666743586,-0.641869640360292,-0.980694901232773,1.02275552856843,-1.23864056803238,1.28582916918259,1.97307316478143,-1.15255701556291,-0.0264642276075932,-1.08965646190468,-1.07296356957762,-0.882729019593218,0.952573099197215,0.57625052881674,0.498798926906186,-1.01499907022861,1.16693405784073,-1.22669016602358,-0.879926031064539,-1.99761647712252,-0.153750701527714,-1.94528384180904,0.804141593303586,-1.11868397720421,0.992799353240014,-0.33862912204654
"09D_GTCCGTGATACA",-0.818404516344075,-1.29983294808911,-0.168466629089548,0.229086085165663,-0.0413634987723548,-0.885896469916782,-0.487814339241368,0.241508643939254,0.142670631182558,0.234712058648629,-0.726749012619271,-0.0919299674578276,-0.119053016778588,0.166140504976693,0.28471315105261,0.160966410826539,-0.299509409647702,-0.1243965408088,0.508553941002112,-0.234039849213458,0.156083859915389,-0.0986564697952971,-0.153477968110499,-0.308522537370899,0.0795840236722656,-0.195295977638937,0.14324349770212,-0.138865414839539,0.211715562772975
"09F_ACGAGTTATTGC",-1.34759349928457,-2.10952042795927,-0.0302679076379158,0.992458476303725,-0.564071960392956,-1.03010063040299,-0.686134055009543,-1.42544977854855,0.436930264911366,0.0695196914233412,-0.590054703888223,-0.518708697109202,-0.0282265921745219,-0.198375341472064,0.0876691613457708,-0.194115829772185,-0.087598849169238,-0.303989624351427,0.343906368536409,0.0579597044631598,0.345626824656454,-0.77786369919251,-0.655670780745287,-0.017216886479239,0.925686513232512,-0.216354758070079,-0.0348409011035348,0.253551639096831,-0.0120880701587119
"09B_TATCCTCTCATG",-0.945727131192869,0.765681119627574,0.328221555695466,0.28754723761739,-0.0126804655753614,0.299628996250324,-0.523824986377077,-0.252908680358687,0.50525310557177,0.0986759010885719,0.0546501273714246,0.56721812700577,0.227410169402797,0.0428695985939986,-0.179777538468091,0.592653038491476,0.149672105212894,-0.258516103409102,0.0928775861020076,-0.099865913421816,-0.536715729528837,-0.350283499880659,-0.412291167418141,-0.0327084546118429,0.324606541588771,-0.165415856095551,-0.079481600545306,-0.144922325927614,0.561556840805634
"09F_TTAGTGCCTCCG",-0.369531240219005,-0.571869031616394,0.371708238948859,0.0864797078930342,0.0683893468491689,-0.260993050739192,0.0612484414540372,0.104206389814506,0.077643723814839,-0.0255933872581158,-0.366726239015867,-0.0102995964630087,-0.313171423411706,0.319854233119882,-0.0655998249093775,-0.107591832658684,0.0880453198930297,0.327981086322395,0.0864701820956213,-0.0440579772236154,-0.106567984012744,-0.0834237116631721,-0.02827003971902,0.195883693629527,0.236008662840828,-0.335542863350941,-0.0360028591734711,-0.289204345386793,-0.0312980615629204
"09E_GATCAGTGCCGT",0.417404950866048,-1.36770708346902,-0.53830697565521,0.0202995183781244,0.0290701620355999,0.0264585538791084,-1.20545251997481,0.620680107168548,1.20371987468911,0.614910611348561,0.937063345923405,0.0882949467554367,-0.157979554101378,0.308702295587066,0.52788013607164,1.17747521879921,1.03155144787711,-0.559389588598575,0.156897179602078,-1.17155413813189,-0.447042704480028,0.795418266795572,0.667051476597581,0.192221330446025,-0.573168867073967,-0.308599136938909,0.461008022248196,0.075251757980163,-0.204575890344533
"09G_TGACGCGAAAAC",0.101041368937833,-0.1030975888648,0.821578630936781,-0.592260300140661,-0.00434593724529277,-0.4738173931709,-0.617790731569668,-0.316211114151221,-0.266225572835579,-0.531300800817174,-0.204560025156361,-0.224586581825948,0.289227508346053,0.22379681494605,-0.24525332673457,-0.234406444982328,-0.131981710679209,-0.41470711788537,-0.0658432564802994,0.314774072969674,-0.0497572826657469,-0.246726481612542,0.135970209259845,-0.0853428958681345,-0.221444770408026,0.34006494000843,0.188966841461529,-0.15046195557311,-0.780038602010782
"09L_GTCTGTGTTATG",-0.629551421655207,-0.0389082623455211,0.262557449097042,0.14513461464045,-0.359192549131836,-0.140708539797483,0.134039299111727,-0.127669475456532,0.000490805533469117,0.0394079619031546,-0.063478547273961,-0.10005771728736,0.157048949248469,0.0500568735758161,-0.0470931462371765,0.00762655905852821,-0.0766651915355666,0.241592721105242,0.382129078771454,-0.0445684372457976,0.075571608389343,0.155124471264821,0.0418051466145419,0.18210522362796,0.0497841920981088,0.0269957872422346,-0.204349746194562,-0.0458757132613905,-0.0988419849356966
"09E_CAGCAATACAGT",-0.219173185912589,-0.122981132292752,1.99407461265831,1.21389730584219,-0.278792425907842,0.589188926314214,2.413737921053,-0.763050422374926,0.605226832972774,-0.395819619146508,-1.7988603614058,-0.372331838157462,0.019239272925164,-0.619314544950196,0.290361599162993,0.309437507294254,0.400310020597074,0.301883352556428,-0.633441969595024,-0.00749638005660086,-0.931070669641684,-0.200539325198475,-1.24946487320759,-0.721557267244426,-0.192616583993113,0.267219338711948,1.72831243457355,2.23685829179937,-0.115746158870231
"09F_CTTTTGGCGTGG",-1.99615223795813,-0.43097588068502,-0.380640339109923,0.791955359145435,-0.467146043395559,-0.832737883507226,-0.239284332767973,-0.114926394494795,0.598451574440473,0.120736623260012,-0.938033466039756,0.546361609284723,0.133622654882295,0.227064915590318,-0.871523412550297,-0.569325773601861,0.297044981532732,-0.534191789501411,0.222657239668405,0.486298494668446,-0.395208997071193,0.0154821837062328,0.158604143407844,0.121721581167641,-0.363969311781529,1.38925650306146,0.209737646034166,1.09147945567874,0.14547760663344
"09G_TCGAATCGACGA",-0.275563235300901,0.144235334372381,0.493694960746841,-0.0470982312483249,-0.00477563527099402,-0.846810885704591,-0.0339895336710896,0.152732822048763,-0.124465986617817,-0.180035689798602,0.15184149638591,-0.186354865104403,0.194171484296274,0.173343044272476,-0.0860151488042096,0.172612680536875,0.0986414245930706,0.0440683461739987,-0.448065455782298,-0.275018129395665,-0.274815005882872,-0.0299721404745573,-0.0173460290178451,-0.415635725849895,-0.303878472869698,0.07057241771813,0.0517149344059462,-0.145682112875993,0.0187713739020444
"09I_ATACGTTATCTA",-1.52715983269509,-1.7063981356288,-0.0733415513015299,-0.223263121741416,0.398772101916628,0.783650428869095,-0.433507046812159,-0.868503807467518,-0.0740732743830211,1.09019393444042,-0.205637738822954,0.949595624412595,0.211157588906349,0.121254142341485,0.267768224277094,0.200595059156798,0.235040961251597,-0.096361093852195,0.0546142621711478,0.759244166252782,0.52722475212431,0.579588790321313,0.0611990476791535,0.20070803964302,-0.756572525081741,0.4267441567192,0.309940834639011,0.8510899344737,-1.09966902953002
"09C_CACAATTTCGTA",-0.747085751361915,-1.87865296933976,0.0213175884568825,0.395928199471893,-0.212218214046425,-0.56727101866431,-0.397217922511631,-0.304613203254089,0.139841806445601,0.0128751798096583,-0.276118128557315,-0.135782583205794,-0.176606628906178,0.472715857059664,-0.143109693357258,0.195404058062761,0.283892471628052,0.124864770069679,-0.113636766631388,-0.123126116367609,-0.211189168948343,0.107928455698126,0.291073281159645,0.184667180374442,0.129481118243258,0.108523122170423,-0.401785081859662,-0.0712353047360272,0.254418595225088
"09C_ACGAGACACAGC",-0.357266543655256,-0.176319221016614,0.614935169319835,-0.411418161930945,0.00694366800416742,0.251592558139541,-0.022562462932622,-0.0680937869075217,-0.321127072346125,0.134095670147607,-0.140337182907561,0.0586206771745832,-0.086631301282713,-0.0255420854602855,0.144912972467809,-0.0309023934126416,-0.319940631517346,0.0426441341042002,-0.139280005984226,0.000512657762529617,0.10125303761697,-0.0611591264337758,-0.00235291185759365,-0.141445910977671,0.114144748280877,-0.00926905883185608,-0.0641899408756322,0.111118544209846,-0.217747629316174
"09F_ACCCACGGATAG",-0.668175924678219,0.889296702592405,0.850958142134657,-0.255968069980936,0.308433744365608,0.856500954600807,-0.348310325205375,-0.369360177036155,0.0772139175498885,-1.33740680629533,0.143750444074437,-0.286052301254538,0.148583692229286,-0.121432521423897,-0.413593853175495,0.299867167331995,0.0967070124627742,-0.503125022124609,-0.625703807741908,-1.00733162168204,0.23881305098723,-0.103393123411683,0.0569172853633266,-0.327911762707108,0.0650542993938285,0.688971217106093,-0.965580036218029,-0.692791162994048,0.4223646908159
"09F_TCGGGAACAGGG",-0.136682359122826,-0.329979082223679,-0.15144320171761,-0.0192395328774008,-0.0882505645162914,-0.226757989427967,-0.029504911365522,-0.011306191471224,0.164471924124157,-0.0990317762524935,0.12955504531634,0.0737039982678692,0.268307145926041,0.0707712958385732,-0.0402984159088137,-0.00771065025932975,0.0242583676943953,-0.0271595520399946,-0.0620680069754367,-0.0957438521793688,0.170361083258618,-0.00531862141730886,0.0841650040789509,0.256549492095316,0.0213214653353976,-0.0710327645865827,-0.304785153425365,-0.0500968071181903,0.0954657771681022
"09F_GGCTCTTACAAG",-1.33324882273924,-1.47206336056162,-0.479992616971073,0.47510462645461,-0.0528754384333943,-0.633865962854003,-0.531164054699522,-0.781458781275449,0.575929204426833,-0.556250396427882,-0.448757774592606,-0.374759377800263,-0.253923889402641,-0.0745096431060294,0.224707845080374,0.159070612044876,0.34370886147761,-0.406117414702084,0.545486681393631,-0.551264619978825,0.327975210978029,-0.20670878288805,0.174897419616367,-0.158385214287172,-0.470733077743182,-0.02381426754835,0.227106782753247,0.246955820735337,0.477596513005478
"09A_AGCTTGCACTGG",-0.438100359105091,-0.221928649924374,0.696250869711102,-0.932007814730858,0.371054317130512,1.07141997013781,-0.210736146364742,0.499527753635605,0.413024195601343,-0.0504286618927568,-0.074262988658219,-0.602161251817644,0.293585140267767,-0.299935958703433,-0.00942558323542494,-0.130072005589086,-0.138020519684928,0.626574889299663,-0.426251669488239,0.424933006521228,0.454630757815645,0.789903440771604,0.739096570468769,-0.415775569395993,-0.169820143736287,-0.322148354322156,-0.0541203891312554,-0.386287141537327,-0.0599662675133442
"09J_TGCTATTCTCGA",-0.653130564575087,-1.66107782633532,0.178677475689066,0.0934337760173833,0.21731832640356,-0.472721841838224,-0.86662980014207,0.242917149588513,-0.0784747216114148,0.59266400459565,-0.222224822404091,0.0196643945999451,0.143095265414892,0.427803813612321,-0.153069249595113,0.150466811829636,-0.111516125719579,0.41639538734593,0.343383762252027,0.147640250062635,-0.0241569749175061,0.388443603863127,0.244260215570255,-0.272803474782205,0.0441625027105594,0.16023692088845,0.0468726379409701,0.340868166947995,0.0424748605995208
"09E_ACCTGCGGCTGA",-1.28197563096269,-0.52438643458556,-0.715802369609583,0.0862587381988967,-0.421372584414735,-0.700760602271197,-1.06477392072845,-0.526865580669632,0.49076577050556,0.127729573168297,0.0236780536818638,-0.0343891248423997,0.333011285170247,0.373240168310491,0.0456400722625373,-0.0425342330685718,0.0976210214619021,-0.636881658539694,-0.0567691158105724,-0.00912631789391872,-0.0241549760977487,0.256380162698476,0.301593212672187,-0.346540045463596,-0.484076707347361,-1.06544338619929,0.326112454574637,0.0061440885186063,0.447683809961331
"09J_CTAATAATTGCG",-1.70338686996759,-1.13538280875921,-0.18842423752975,0.171362094456396,-0.0204924833067266,-0.512592505644672,-0.77272075022875,-0.57776574895759,-0.0439029409562091,0.588149489872263,0.309062745332466,0.128329656238718,0.360917111986388,0.160584951710663,-0.655416174847164,0.342183130849916,-0.401714730669891,0.481827689579154,0.690455376413175,0.253044801982625,0.348126361889001,-0.0356537648495555,0.282860570553863,0.313392804733134,0.188174086959419,0.117252636699494,-0.111799990545209,0.152964731010358,0.589541392246811
"09I_CAAGTCGTTTGA",-2.61333844735323,1.89242909194116,0.734364067840359,0.564703737625304,-0.580232960013501,1.52706853919133,-0.071510135416426,-0.0462383230790333,-0.277611796353851,-0.583514703274384,1.45528939953482,0.730215063423772,-0.00608430601643196,0.0240810866427003,0.715087358265295,0.897776780751486,-1.19230102627314,1.49433124867175,-1.6910488886133,2.66440972895079,-0.405897003552621,-0.148038431144171,-0.673525553351677,-0.415215292101786,-0.513538960046293,-0.729407969732405,-0.145532631010865,1.0718466298748,-0.359912946783646
"09G_CCGAGCGATGGC",-0.14902611483659,-0.512795801773509,0.132526981757975,-0.18235874868126,-0.166971025245383,-0.606937231194031,-0.108220613451463,0.104009626976281,-0.112561662409376,-0.136004600471952,0.0741387824948365,0.144868192457631,0.027612449851186,-0.133679840112967,0.0542030174723827,-0.00855081149277766,0.0438290490524746,-0.0677533599960585,-0.159939770685874,0.0981421084869924,0.0652060059492913,-0.0224204850735268,-0.150682594536061,0.0025822899766568,0.323566838018516,0.189099127397623,-0.253099096310013,-0.21784809369184,0.0171918783999033
"09D_CCGCGTACGCTG",-0.795283885926948,-0.820648684502475,-0.12465783635706,0.041859892776176,0.217741873830616,0.393814324073764,-0.484145137106103,0.00550388984668763,0.120532948100954,-0.140787721640879,-0.200675419622254,-0.00550694273272176,0.497205050977697,-0.108777873249763,-0.216305878392,-0.323612745318239,-0.175347166322889,-0.0792921952903638,0.137218343489121,-0.150682411807728,0.0272599971104532,0.097909027093827,0.52021103658747,-0.322463431345698,0.198546328139776,-0.149920287021008,-0.0193555562849303,0.00660400890916744,-0.0423074793536112
"09K_GTTACACCAGAC",-1.16681245171825,0.387963445313295,-0.696052415685902,0.248426278550608,-0.265625544607718,-0.700500472250988,-0.499146443620523,-0.0321802282669257,0.647322272769669,0.402873868831675,-0.115968649084465,-0.210942916220997,0.60600110913147,-0.507911327456149,0.589439751772111,1.77401795656294,-0.322994260040363,-0.656061303033721,-0.536906957588529,-0.589610787402673,-0.930251237259684,0.671468408966111,-0.270483179871093,-0.590829185945357,0.672514556766004,1.31680384822717,0.729355951764478,-0.627277828648823,-0.303154580827866
"09C_GGATTTACCCGC",-0.195884478914331,0.246119395854565,-0.26894698729655,-0.831247537477849,0.639738753369207,0.301635833427314,1.74376896811151,0.121469169481545,0.650287840341591,-0.674424299051781,-0.33019508728794,0.323329915472348,0.217582319466532,0.161221444149807,0.614653482980073,0.68167751377552,-0.345002134214872,-0.856573199436522,-0.212351658063236,-2.39148881884545,-0.689958672045789,-0.139403780531125,0.237584028287514,0.565132215590027,-0.841272407880256,0.415375906990864,0.172740519989295,-0.316914827272422,0.126059256460337
"09A_CTTAATAGATTA",-0.478784168372065,-0.661467355241866,0.341013488263114,0.282309126144355,-0.0325114934995736,-0.546830385587749,-0.404712393685932,-0.0962020747380635,0.174571465557205,-0.155784326801451,-0.0690319521041274,0.134976327572667,-0.177109808554468,-0.281998730559905,-0.068358354625568,0.240046500580585,0.251140629089658,-0.45904805448073,0.274355174642755,0.133974009252753,0.0914673202362314,-0.229160467748207,0.106199840939345,0.0336987091448445,-0.0824237692051772,0.0264603963300036,-0.174796287210863,-0.263901397568001,-0.116196441317913
"09H_TGACATGTTATG",-0.226085426392593,-0.183549303150808,-0.603397549528783,0.354768746539643,-0.199369189654095,-0.517633974079688,-0.44610311475443,-0.129052027215788,0.186889685088185,-0.179779423692158,0.0486779699096998,-0.139768642342821,-0.0266203797636019,0.101620228253895,0.0544221643872544,0.273308148573433,0.181946331076826,0.125450651969334,-0.0451811585140542,-0.156634057501536,0.0244757148780048,-0.141549747618464,0.0513587208973102,0.119025649521758,-0.104704171371876,0.271886439362557,0.0149337936104245,-0.0186651373625763,0.0593988028866871
"09I_CGCTCGTCTCCA",-0.245902193255122,0.439195126916873,0.339394255016225,0.00126378235959882,0.350341438363906,-0.262851031438945,0.0124464954708835,0.127396987396205,0.295861927078342,-0.0708085864036379,-0.0526271874995572,-0.068351883957151,-0.0453866091924851,-0.109852293034029,-0.159261232440529,0.297382631443802,-0.152566648715949,-0.0929566098221919,-0.100949813958191,0.041384984169055,-0.10703049684596,-0.0927474598674811,-0.148358547315314,-0.0569745925453375,-0.10327617831577,0.423283219788328,0.195422748084321,0.399932179888701,-0.0754807297927813
"09B_ACTAACGAGAGC",0.580745186077014,-1.0490577936854,1.35705232178575,0.302166963771885,-0.0323356404590832,0.981631889151389,1.27606318034638,0.191770157534534,0.26510295815627,-0.822757383365109,-0.76125643373228,-0.444204118502415,-0.469893087991995,-0.301942606032423,0.155653989226609,-0.279548078270862,0.0285047376394288,0.0732089327141867,0.757596833118731,0.422746607376499,0.285236586232494,-0.0976033809430271,-0.369521143135689,0.00404400319886378,-0.403439036815255,0.974848162467811,0.37273790797866,0.792531426501362,0.0767684369083356
"09J_CAGCCCTTGCTC",-0.151521441955192,-0.868563966626339,-0.181013307431462,0.2649687072246,0.0513374913123256,0.0937375331725672,-0.769725668463231,-0.232170411703996,0.407208100068371,0.205370757965514,0.153026360166308,0.0194570703431239,0.0713459222882451,0.59840135440761,0.166700271886287,-0.149163344438386,-0.326255971488094,0.0164990209798663,0.0182952013420426,-0.025973342438549,-0.293891453118495,0.155326473936364,0.00081190035976167,0.315621940617638,-0.424390723093034,0.252035844405564,0.155899579168677,0.0592184824065605,0.108533679254001
"09F_ACTAAGATCAAC",-0.831061805324652,1.91350070675785,0.70074753434858,0.275327219129272,-0.0499669358330788,-1.70686673350479,0.775062657261788,-0.855443235857703,1.08367066977186,0.387149014550091,-0.686668037987126,-0.00965023344821169,0.0606674352461891,-0.360883850371275,-0.536247626210473,0.260961826687104,-0.429099195597129,-0.26094703941359,0.0982059617061886,-0.234527846200495,0.379149706546797,-0.161772108470362,-0.118935721846974,-0.81149716706604,-0.253184417681175,0.655007857584118,-0.0486715111968505,-0.102733224829937,0.229613975943047
"09B_GAGTCACTAGCT",-0.97486472283286,-1.25332435662372,0.616623989150024,0.0795721202626769,0.087763924549828,0.26686415325417,0.0211796270278491,-0.761131147350618,0.97270166638578,0.115425807759984,-0.494054468662046,-0.213041189881549,0.181025781778653,-0.541751238148817,-0.0795238637624941,0.0718921946676176,0.470574080663596,-0.126011950532291,0.246352614519613,-0.0139631125391213,0.408389795294486,0.310528926191914,-0.179948521858796,0.0435283332150363,-0.0628628964915806,-0.0286999447590531,0.580464807634955,1.10883238788405,-0.610395601598775
"09H_GGACCAAATGTG",-0.749329627732911,0.13510250393223,0.865382044951391,-0.72863020034393,0.256548887856521,1.88038017522201,0.0756281643319882,0.0903931913762651,-0.222030839620507,-0.446311925191223,0.399630444246047,0.14109633689665,-0.48138325250291,-1.34086840626219,-0.179045732206453,0.0659041948128885,-0.901988382489316,0.960680758817989,-1.08902497105342,0.470184464254029,-0.579456706655674,0.660972825402311,0.313674488115865,0.412230274084772,-0.703442807229773,-0.0630221984422931,0.526231956581894,-0.14609191297332,0.679411266285262
"09G_AAAGCTAGGGAA",-0.752616566336029,-2.05824573607605,0.580198425768437,-0.107405449310868,-0.257118144352784,-1.29923053182057,-0.813710255549831,0.818231812755776,-0.268045366478878,-0.50678442623999,0.641872891292589,0.259907210685562,-0.0388958201280962,0.533419738617465,0.0452151359214004,-0.280637133363032,-0.0853352643503044,-0.0677965478186868,-0.207529044363025,-0.298276398452472,0.0308772142022305,-0.247902937737836,-0.397032404440552,-0.480669709341774,-0.155422609386081,-0.245957444366037,0.0284490484054125,0.054370544188521,-0.0440176096061819
"09J_CTCCTTGCGCGA",-0.699213595446158,-2.05681930781925,0.439903442185905,0.151633146928631,-0.00940871452288751,-1.09579949502268,-0.872418311805767,-0.503132984785942,0.0477754895333142,0.229594155120252,0.0353548454563923,-0.282225423009725,-0.405371561491827,0.615529394385458,0.422666645062341,0.234720749456041,0.331796453801064,-0.248346970802531,0.1917893535698,0.199274615878773,-0.162201610686343,0.329129611880116,-0.29309149364266,0.284118089988935,-0.0408052577757114,-0.0543422104747535,0.182042482506561,0.39738185820813,0.228409871312866
"09B_TCCCCCAAAGAC",-0.610177257452229,-0.898732004871645,0.555645592440516,-0.600528773474105,0.0363037104122724,-0.184815528332821,-0.113280462509004,-0.683802139749363,-0.0423449198791079,0.243923089978524,-0.182311597035843,0.231985024431644,-0.32977255300359,-0.293102203329371,0.391723326986282,0.418872622950291,-0.182024983114389,-0.513285891281937,-0.0687051073827934,-0.225301393931684,-0.105819926350667,-0.278186137880508,-0.619701053715009,0.688468751321994,0.606011822045043,-0.82907393962321,0.0203682721442996,-0.569829705064201,-0.244007546637755
"09E_CCGTTGAGTAGA",-0.211508315211851,1.13188737158401,0.782408005782164,-0.526551382497366,-0.178428538573241,0.976501679170555,1.82412326043668,-0.095614969568451,-0.344387120450254,-0.105333695242325,-0.0150985487071157,-0.0825669557345422,-0.1913540642066,0.57148923555326,0.0437789191597589,-0.0316499958436495,-0.224505591642851,-0.101244373976762,0.642820774103726,-0.771109627651347,-0.274802193926095,-0.238348542703395,0.04242052478034,0.222580894235601,-0.878165815966214,0.0394798871686288,0.272168708848295,0.151710965634656,0.141559553586846
"09B_CAAACCCGCATC",-1.00297861180927,-0.328802927455104,0.328482473477737,0.0686516080865405,0.0140616399053796,0.185622422269044,0.516930696706439,0.305380054036216,-0.359340885898354,-0.745456021203932,0.0532251030779796,0.622867685999674,0.739842300287745,0.124748228144658,0.193935559808143,-0.576620237304064,-0.813500732288765,1.00178991809247,0.229452725920903,0.134037841982242,-0.62426148892343,0.102509174290271,-0.223479430423484,0.469322815921033,-0.559219617595864,-0.0531569399897233,-0.272318788793375,0.604677061866263,-0.164525500718521
"09A_GGCACAGTAGGA",-0.406314943014422,-1.68816787312768,0.674952033373354,-0.841833700846562,0.421720068124892,-0.0780392638688905,-0.454062131372335,0.462279685631448,-0.0774920922837605,0.851578913291403,0.0672001866904288,-0.0868594437279128,-0.513438441138428,-0.231252104085734,0.795739591359415,0.843561413909667,-0.0987956388788217,-0.413355838265422,0.200978383773996,-0.188785912206952,0.171316062272576,-0.534087760697047,-0.263939638473123,1.09122075957018,-0.599932528284681,1.56280635959534,-0.229478932207306,0.278834299361662,-0.654899304517178
"09A_ACTACCCTCCAG",-0.219941492715605,-0.637720170910766,0.983923519805128,-0.369239859274415,0.236227336369506,1.35723812059366,0.828415283065615,0.256685670728892,-0.188642627294523,-0.343416035230573,-0.00402934281615177,0.319035016536029,-0.128302592709285,0.0177046413006868,0.0699466011181626,-0.205281555262264,-0.0250329331437705,-0.297519460075501,-0.500635438471067,0.144802857224391,-0.746611509756327,0.00296291474542132,0.328148646602185,-0.22974148588354,-0.351091329256921,-0.185016155025647,1.43254278981973,0.628869158849322,0.130600008230192
"09C_GAGTTTCTTCGC",-1.20185752994066,1.97155178741941,-0.301766612485582,0.370729293713981,0.398368850498714,-0.263189975535738,-0.569886661978929,0.327281533128211,0.65280491785717,-0.145477712555589,0.311726543086634,0.209344405548022,0.625157260153278,-0.059669019519137,0.387954306058256,1.3796320120524,0.0544127011538455,0.365714262158976,0.150727960443367,0.357509987778633,-0.188389573302072,-0.0875519970844521,-0.0733945325219194,-0.189444974951159,-0.120942018196931,0.00382260965181849,0.163589673878987,0.19740888512901,0.56123334396717
"09C_GGCAGAGTGTGG",0.347901458162625,-0.0741837350017172,0.888717284395737,-0.116723113362962,0.173953185305783,0.975245193722331,0.0121907875962307,0.261566231054493,-0.0997550178300163,-0.0974022746933552,0.461394736460166,0.0229900105745693,0.366099053123113,-0.013207296476671,0.141457610373181,-0.195435422455706,0.177636768637843,-0.476925562482662,-0.143447856837608,-0.110593905856009,0.163974513567089,-0.009270977372864,-0.676035168703856,0.50964455814769,0.157747235661144,1.08105074323701,-0.545762583364452,-0.288698568065261,0.209269633691057
"09I_TAAAATCACATT",-1.64745749741661,-3.22616580495415,-0.487905509689689,1.47647487867882,0.0662237713898475,-1.23465995211621,-0.810081466379309,-0.879381867224703,0.216645133454942,-0.0718589810786076,-0.606441378128734,-0.775768706820253,-1.42963320433051,0.183360065020389,-0.520405681857725,0.876989738067788,1.41099006657904,-0.689700038764551,1.39486034275007,0.151321281980981,0.0924150574704562,0.244696859462335,1.49212497286903,0.113669065493621,-0.472182291154923,-0.422061810268419,1.01557290833819,0.852771960170731,0.0583754504305588
"09F_ACTCACCTTGCT",-2.86742278610874,0.832732002869366,-0.956033401820979,0.308487450285012,-0.317042106352586,-0.589496829022566,-1.33059120575955,2.38054915420923,-0.205577573959648,0.314489316880227,0.864101531958657,0.310201841491876,0.167263907890043,0.483840459405997,0.941214257532418,-0.889462061322531,1.4472615466052,-1.72739879078291,-2.13303579408709,0.458509787032881,-1.6021683455429,0.494736160379724,-1.22688249674432,0.62860163196215,-0.192328934839334,0.0707643475872454,-0.184252618234114,-1.70845793859056,1.40391981552187
"09L_CTCGCACCAGCC",0.195882917474753,0.456886696589158,0.945478051159179,-1.12700296167807,0.298466899428698,-0.231690597797078,-0.115935173382964,0.376725839287928,0.195512185516177,0.33796613753957,-0.661239736269708,0.604486274417903,0.815028469096683,0.339051290335667,0.0641790732006046,0.206880838100757,0.230527639217518,-0.123888892707664,0.0140029711327522,0.173161393894321,0.764667826646613,0.496759168748199,0.579114470302343,0.708826243390134,0.184356993727417,-0.105296976665297,0.373080869928148,-0.416001522684722,0.316152789028766
"09L_TAAGAAAGGTAA",-0.948139801205293,0.907124496840674,0.418399035619353,-0.677454651766492,0.660227889705041,1.38550539861523,-0.757104523355005,-0.439177204260397,-0.273703071091627,-0.615618816794555,0.51719269826442,-0.547390246595982,-0.381623232527151,0.440322106033313,-0.753875687009461,0.302007050623269,-0.138567742669934,-0.86912655159032,0.0777312639813727,-0.4981864995645,0.0369024204059254,0.413282442457768,-0.128072191256059,-0.364671841824659,0.295092742218607,-0.338220865856145,-0.756403113892393,-0.385565926013997,-0.734050990497361
"09J_TTGAATGTCCAG",-1.06193528546088,-2.82891299889894,0.355772255500645,0.16228949195921,-0.104593311171052,-1.30139200426526,-1.04839733999379,-0.0505863992123862,-0.167789536755167,-0.0993587501845594,-0.466418644226094,-0.151850354312664,-0.0193017028934683,0.0519506630273657,-0.559526425143754,-0.183021865055726,0.433462179989466,0.0360820320774369,0.017924588969945,0.389781816267733,-0.162420036817504,-0.158418121808295,-0.139336673572552,-0.43512977503126,-0.0841366914626851,-0.137544418468412,0.242330628799118,0.470725274210817,0.211589544333099
"09B_AGTAGTCCTTCA",-0.796470104062624,0.0672536440143703,0.0936910515231253,0.0292355302574873,-0.0553196000724498,0.0342402877299377,0.206406655159109,-0.551915953498636,0.521102637318731,-0.269278440473718,0.0143067738882812,0.0187869739756893,-0.16849716579918,-0.295828334679648,0.471768568539991,0.324152704351512,0.101192194199014,-0.0039233748002491,0.189593214181009,-0.0109286108785994,-0.279999991519251,0.0337783439972097,0.274588949128366,0.122474184791374,-0.370305638215867,0.673732305446035,0.529908327645444,-0.123174663290037,0.351099482956916
"09K_TACATAGTTCCC",-0.321301023074802,0.132752116023734,0.521095385227694,-0.59020172577976,0.115138045922694,0.676314639930368,0.0178316374415018,-0.117143769666543,0.187195879287492,-0.163753291070366,0.334868195959818,0.125396377175132,-0.0477931260327071,0.0997551729073951,0.220034648485351,0.136560739707154,-0.111202238684546,-0.247096814706603,0.276910605800963,-0.184554756593131,0.241246222576181,-0.0557187495709886,-0.587626096076825,0.157846629291546,0.0375801054970245,0.26915535481158,-0.20245997882919,-0.210914517287242,0.0973340261132318
"09G_TCCGTAGCATCG",-1.30395852548598,-0.103606236650105,0.607583208431232,-0.506477972840611,-0.436244230496019,0.121053082836781,-0.52303950990868,0.471158689180683,-0.390493957952125,-0.781009563337071,0.246459688021542,0.113138370309871,0.597332072290049,0.419556043934957,0.331224451571006,-0.718852207907826,0.142729202799963,0.233092547375972,-0.278885453400538,0.318191272830881,0.226998184991252,-0.389935375639334,-0.524833189774785,0.305608223054084,-0.213074887924436,0.10892956298341,-0.622911105618967,-0.426275960663636,-0.0144079614920251
"09K_GAAGAGGTGCCG",-0.73482097504627,-0.492949385520751,0.276954798861947,0.10686777818004,0.183355493913461,0.439834197212125,0.287705765669771,-0.694026680539163,0.0762329235300691,0.0578352658987841,-0.375405429165058,-0.823873570227569,-0.344955266038598,-0.0911872469834477,0.257402621646426,0.396785523819216,-0.269206159589498,-0.0938976646678383,0.493768483998005,0.0843608550842452,-0.220205562070634,0.132298162977182,0.298250352958915,-0.0775855807102513,-0.0549665599994575,-0.174044934902493,0.275048349661909,-0.0179813944972774,-0.177731784668292
"09F_CAAAGCCCATGT",-0.0965555255582015,-0.474791697225621,0.4803734064644,-0.161030826008331,-0.0700705469972909,-0.206099674899683,-0.0489642824897402,-0.0897754006604885,-0.0763177439024243,0.0211439888967824,-0.0991056073865972,-0.235558700710546,0.358907029458276,-0.187871451744996,0.225781881260759,-0.0521039371161157,-0.181201213933931,-0.190089157633394,-0.0179931088739097,-0.195478940161079,0.167772147519353,0.0400086994394121,-0.368714015796365,-0.0829549149333184,-0.0602775728820482,-0.148641757412636,-0.217770899597698,-0.166294335233886,0.0789776636755239
"09G_TTCGAATGGGAA",-0.907114201448097,0.0261683096469971,0.176574232032005,0.117090913227923,-0.155671716730155,0.0533485398748134,0.0193497809671442,0.342504808642271,-0.128141193876373,-0.396296415654907,0.210309545550135,0.544610777021776,0.01577870389469,0.0183979740582016,-0.222211307874874,-0.866365999929743,-0.00971980246669243,-0.0626606808843503,-0.438934523189287,0.0289946494850813,0.084274373598083,0.421049934599553,-0.175380503168019,-0.164605271062361,-0.0345294000362055,-0.0602574763627098,-0.258655848569278,-0.0696338938152023,0.0828665187785069
"09G_CATTGTGTATGA",-0.436080226256206,-0.136734995016449,0.872808655598766,0.17429990036157,-0.0481078003900925,-1.07867958729219,-0.360456293488581,0.701456285969028,-0.148610670443335,-0.38566188987605,0.0701408398694289,0.325913370808408,0.453129971369641,0.390340764624149,0.154857709647018,0.0427630389092759,-0.596661260189863,-0.324367499198165,0.18314255667609,-0.317583484174188,0.50893774279079,0.942891201223709,0.918835929632493,0.248811881952355,-0.256603468949735,0.139031132488651,0.111062885493004,0.376602071428909,-1.25134715591949
"09A_TCGAATCCCGAA",-1.1089356196564,-1.17927133043902,-0.752369751367938,-1.43107003243725,0.626152311134102,2.04164411682601,0.0407421198271497,3.4461816749843,-0.657432770852844,4.44138181755946,-2.11353316796175,-1.05362820817548,1.20205863923358,2.46172058532676,0.672978144591225,0.636212332452928,-5.4218715732768,-3.59207293876192,3.04280845995417,-3.17574334403846,0.409257963225631,0.586600417042808,-1.92819289685214,1.19478084254391,1.47427643803178,-2.06477338960162,-1.73392201880313,0.87265970134645,3.49112728147571
"09B_TCACTCTGACGA",-0.334436662033052,0.297729451616821,-0.102315621047515,-0.404946042949837,0.251787200076359,0.146594041676993,-0.042859374357397,0.151846869922171,0.0407709759052465,-0.150259937739096,0.0752868509253111,-0.158154934634987,0.023909584338067,0.186516520410851,-0.00766544041588694,-0.161169255611779,0.155852843750597,0.151183253593572,0.00491334282549635,0.0641383039775643,-0.107047273223979,-0.162229506397697,0.0635508348692759,-0.0929738795778896,0.133266054451005,0.110216418138787,-0.106397236622863,-0.0604291959112448,-0.0410954974858393
"09C_TTATCGCATCAG",-0.263768255126532,-0.609509242846867,0.896605398455968,-0.315065442391645,0.193074915793234,0.729702257319227,0.325405933251841,-0.322901317765854,0.133612211781668,0.105494580915864,0.122738406520118,-0.110436421339208,0.19403493135013,-0.27334798715233,0.267840622065136,0.353221374088297,-0.0429257717537355,-0.135257120508796,-0.136945753729708,0.0513356696233265,-0.0406021621201263,-0.121711870725041,0.137149356683581,0.101506267298485,-0.174996872779575,0.0186815851562314,0.478366301903844,0.284569073705661,-0.186129474209381
"09K_TCGACCCCGGTA",1.03269242227325,1.15640673173585,0.8030614717982,-0.0405349549015023,0.441988188949261,0.732032246716478,-0.433803577996178,-0.440256662383331,-0.0797949632942132,0.851817613910502,-0.49419558907146,-0.50465557493806,-1.13859285105473,0.768257358911562,-0.16040824668319,-0.615416476414393,1.1323989825334,-0.436017373109533,0.923849006704089,-0.389138957474751,-0.577621043364321,0.605670126373462,0.719753350737056,0.354822226171808,-0.0304454970832219,-0.314471671566381,-0.244971736421325,0.513408588387534,0.0261193372384061
"09I_GCTGTGAATCAT",-0.113725721501203,0.965333456803237,0.502655097644031,-0.0543604515585239,0.0200943047286722,0.880906813176906,-0.316657838947062,-0.693596532469805,0.398564532050734,-0.0590084690762942,0.488239124418064,-0.701628939075887,0.717870799432031,0.323466645224264,-0.0494350254031713,-0.160981632678375,-0.631960870380701,-0.300478964271042,-0.120098244629066,0.0653748906788393,0.184321916646765,0.189973760245623,-0.0155615959915672,-0.307153284368757,-0.32805944644972,0.573816827910483,-0.355201511063999,0.0031440864476621,0.542756734954309
"09E_AGCGATAGGAAG",-0.767832215773938,-2.59314365315641,0.846796929509654,0.00324580529464519,-0.299380652838817,-0.91579734680894,-0.592641215247355,-0.320581270996424,0.149219730447063,0.15501767412363,-0.436492636473286,0.168627477289184,0.0225614906706105,-0.353952605860336,0.281554780059097,0.266892693378981,-0.0479941264823738,0.417855124231086,1.14157023009058,-0.221177635588159,0.707477193590773,0.2048489127217,-0.182727351795044,0.318604453108166,-0.0170033232631808,0.0777886020355406,0.176596152323921,0.871240536647505,0.749504785477389
"09D_CACTAAGCGTCT",-0.0972781153029655,-0.423148802861078,0.101263165055496,-0.249326116617707,0.317450266615747,-0.403128739969817,0.134518155869116,-0.0624549953996448,0.11806760801336,-0.258523216817648,0.123084725578287,-0.0441584705204424,0.0781533677617458,0.0251110977925353,0.251305137678318,-0.0809957398160385,0.00722885757808396,-0.256665295502988,0.306382543681425,-0.271211530767109,0.150075328001854,0.179890697110367,0.233918697267679,0.235469026694222,-0.320341235347299,0.0731322238812525,0.260107344642887,-0.0578701525683721,-0.464333066988476
"09C_GCTAATCAGTCG",-0.234286062050299,0.229294624087346,0.69424191933602,-1.01122510416966,0.158836702434701,1.30539315945349,1.15370043087255,1.00667815294102,-0.00354637298769633,0.32184644939203,-0.517540086507158,-0.510755109061917,-0.35806787554848,-0.820272514682448,-0.217648125288154,-1.25275719110165,-0.36137196238763,0.229390643754244,-0.0406517651594031,0.171817820328078,0.577712025989334,0.506293089880278,0.208868244637254,0.814206720561797,0.232609585838591,0.0763314692770785,1.11104973970657,0.247289134278828,-0.290129781740356
"09I_AGGTTGTTGGGA",-0.548592790345668,-0.685239505018792,0.768930052084116,-0.946503256315585,0.242541417768026,0.595759849225688,0.230517494220747,0.37428468556469,0.179117089741722,-0.428055615644552,0.0525194107718037,0.22521833212458,-0.749177270213267,0.0863196564402468,0.521138972554536,-0.0596089732637868,0.882488372928106,-0.192568151606582,-0.119074248971382,-0.344477377672745,-0.0762414671801834,-0.346905324152612,0.171316941853704,-0.1064731425985,0.0531917800103318,0.303506389007513,0.4514964112159,0.0196566179243901,0.167187382149358
"09F_CGGTACGTATAA",-1.01400509005009,-0.201054101552476,0.0860224411506545,0.624570720585578,-0.238910675103947,-0.172026347417419,-0.239208884481955,-0.274963034408008,0.106748042029471,-0.282429512475261,0.171035328110617,0.342814206598113,-0.00953024806522261,-0.231192873484179,-0.570674677404032,0.454455092352807,-0.61709845568832,0.284937526890526,-0.179003993744702,0.0939061380915499,-0.22565544830123,-0.348831240327571,0.0916817872709799,-0.267002544046939,-0.304457097535386,-0.095613469004834,-0.231269155505693,-0.0044843230609727,0.509122212111831
"09F_GCGCGTCGGTGC",-0.788641871336681,-1.73219632114181,0.4001084829456,0.390903580901358,-0.161616296115359,-1.12233561390655,-0.438000891139176,-0.637083155327565,0.195597923736063,0.0748532224140642,-0.895691268837433,-0.150906230318325,-0.35398011131934,-0.352362241332501,-0.55822947441964,0.186101854375144,0.531052103042963,-0.302022867997997,0.42640344125256,-0.226832563873566,-0.512774006771416,0.315807205913244,0.189999528104084,-0.117778210349458,-0.0112602421685053,-0.0875125739823428,-0.186962239548258,0.124713701820407,0.359946797816229
"09J_AGTGGAGATCTT",-0.418357244983314,1.48065388615412,1.58588837564466,0.0845578452930865,-0.15514649879473,1.81635721464501,3.86974179087718,-1.27634000957271,1.27140020762056,-1.73175520820386,-0.528534969877851,1.50518951103222,-0.258480119862624,-0.67505388065228,-1.00945360397192,-0.241777381148118,1.57701216879034,1.18209864312717,-0.716284254819256,-1.68418936365705,0.218653971067653,-0.0204247196385352,-2.3636643015155,-1.27168120985421,-0.462004433349969,1.50172955132414,0.15961527126647,0.7010501974941,0.168898012859537
"09E_GGATTTCCTAAA",-0.829840745813941,0.657723430677079,-0.0235499820804429,0.109607470140834,0.160128397680453,0.315388749959774,-0.0512942467586336,-0.162887310586092,-0.0536177467793143,-0.151033472608688,0.10122333958554,-0.291967729957637,0.0971105897762897,0.101994549095603,0.281723738582521,-0.109361829460803,-0.0362888419897058,-0.031867402988374,-0.161086632944768,-0.548141804464937,-0.204228852177379,-0.105800274391427,0.13408267238807,0.0715161269154061,-0.164290886367915,0.0630193112525177,0.136690739285656,0.122047135665271,-0.260515113654769
"09D_CCCGGGTAAGTG",-1.1569524281983,-0.11134766228002,-0.306916394606428,0.444489068066104,-0.1174174966033,0.264621869998819,0.516822748936755,-0.0886021098644531,-0.144129203713468,-0.097384725615924,-0.17809176470903,0.265396696893001,0.0551120494333666,-0.140254564349813,0.390355775414252,-0.267294261796822,-0.100962688238883,0.175967859209483,0.0581438528704172,0.278439769649825,0.100485260347825,-0.237416793490865,0.0183322848635098,0.207000552981631,0.18194873536515,-0.348265843285489,-0.160316294978149,0.0487089609188432,0.071532141578014
"09D_TTCTCATCTTGT",-0.670099772568386,1.30659541416204,-0.240678093108709,0.0207688673133564,-0.0382940138400071,-1.10474537778011,-0.692830414352614,-0.485701287345582,0.111878308963809,-0.325901976063302,0.269220885672047,0.00380779430488715,0.230432857515074,0.0781787455148405,0.163643171799158,0.701949093369853,-0.41580341807482,-0.140533479846551,-0.20667923203259,-0.048801606877606,-0.283306523626903,-0.573891061496735,0.295707988258336,0.406429031510689,0.469252675800011,0.292147324932818,-0.25283487600931,0.0881092688103807,0.0740941036169975
"09D_TATCTTCCCCTT",-2.30904943215295,1.86959743045276,-1.17304522805779,1.44611418708475,-0.905007393733452,-1.5323900468749,0.600441696182993,-0.200613027252445,-0.962141878346912,0.282625165878361,-0.229603498227753,-0.104726339981383,0.307618483857161,0.798992658293735,-0.339181793603893,0.462939139505691,0.242736247203586,0.598770935152229,0.510845968534597,1.20178993021025,-0.382746973799821,-0.482506355372613,0.859099952261037,0.196945185051753,-0.430641664452803,0.77648576301762,-0.562328882872633,0.171347592243845,-0.0338601513287363
"09C_AGAGTCTGAAAC",-0.665666717869134,-1.21878855682806,-0.0828551104607276,-0.247714692559424,0.133498417552548,-0.477768910846536,-0.622223135519123,0.664489730635565,-0.0975853164490247,-0.0121016535192092,-0.0774597755849576,0.220412757764399,-0.186549784801969,0.0485373841887745,-0.216563998236306,0.183788322598969,-0.0785143637310861,0.470398459707734,0.0983066178488674,-0.365680241228553,-0.17953746009844,-0.237932880208729,0.527562991477589,-0.3002478807812,-0.0558039584700671,-0.381862550013791,-0.41684133681364,-0.203372083858475,0.401730057887687
"09C_TCGATGCTTTTG",-1.83709629352263,-0.820953196143215,-0.778325915188691,1.23716398857674,-0.576415843881786,-1.29600215658234,0.608631978714976,0.177208906242613,-0.274024517218617,-0.614899600309937,0.487895021635873,0.30152933821879,-0.273476975400048,0.412035973637652,0.0109154841511101,-0.528656872146824,0.0503939813805717,0.0157625812637737,0.363096132953424,0.139630414422616,0.0384729256100592,0.496447517355459,0.277951879850514,0.137033881566359,-0.264025013675591,0.334009541387801,0.113498046614536,-0.63709786347105,-0.440798198076452
"09C_CGCGTGGCTACT",0.0598740953515141,0.0127935859571504,-0.263717186713273,-0.232041854447998,0.378449058485203,0.925353667171213,0.226216231840508,-0.0605767853480699,0.519081583658451,-0.00688876095739949,-0.256908832799889,-0.416126969720137,0.229510479198756,-0.0428338916071603,0.180321861233794,-0.213390990506399,-0.334317775261573,-0.153914564520949,-0.599836735999468,0.514391291795955,0.15942670003313,-0.397589284232789,-0.141611991487289,0.548355496197665,-0.126481092852386,0.618530484616939,0.232615637335172,-0.545991534593512,-0.600847674276734
"09F_CCGGAGAGAGGT",0.426358469156528,-0.231378248189641,0.699451404242499,-0.212067025705139,0.208410270341613,0.00440699661893843,-0.0427450392401909,0.188476477514743,-0.144277424539828,0.518721905916996,-0.299082428725204,0.312250786943038,-0.153928161712231,-0.148464119750835,0.204469426806097,-0.0372334319404601,0.439066698203048,-0.22058199859122,-0.427612856769461,0.0414922072397621,-0.838455112744442,0.0602772718197915,0.193009609455775,-0.107610769390422,0.313410282119547,-0.574793532101714,0.0758442639047925,-0.192547240986273,0.280322955973465
"09A_CAGCTTGCCCAG",-0.809873189908453,0.381218103384858,-0.0646184564923498,0.404078862075058,-0.188379241368977,-0.423213468453802,0.731098725611263,-0.0173128852279569,0.0242955263706484,-0.383501479511192,-0.062088732529378,0.00915052084878281,-0.215702291960093,-0.0962048919828242,-0.147273193710686,0.0793831789178845,0.207405435329825,0.189500227965061,-0.0920859054888743,-0.261840167372203,0.27653448455881,0.26588605841012,0.782086193222409,-0.149892431881317,0.14137984379973,0.865084690065647,-0.101448636508874,-0.211863455620035,0.443817378645419
"09A_GGGGTTGCTATT",-0.361313410189569,-0.433634822841453,0.154033797643919,-0.180221390953478,-0.219770243496418,-0.639345142131973,0.378200039041743,0.432373794794965,-0.140083303888469,0.349808925159153,-0.131741199888245,-0.258000039695296,0.177222968935355,-0.382928969201431,0.397896938827877,0.178211556522113,0.144354855943939,-0.229847020365146,0.318939512976187,-0.314194851025358,0.249209335713882,0.156308605657928,0.139592664711137,0.192715912225938,0.157796179131709,0.242634320042381,0.439062637541959,0.175027066565933,0.0075631741795154
"09F_CGCGTCGGATTG",-0.468120542275177,-0.724440146480539,0.111500314386832,-0.214126159142385,-0.0901590015789651,-0.682171300414496,-0.365395220523561,-0.555304458136424,0.471645019202663,0.356049421223233,-0.0273945222418957,0.097278738335506,0.737364686777555,-0.225853060044556,0.256580269334871,0.295966606923634,-0.360467292141498,-0.0696571006677362,0.416171333078522,0.0136207062779385,0.504866485093882,0.49715794042593,-0.261587539097404,-0.374445457751902,0.0189733180459388,-0.468111276783885,-0.297499043856254,-0.037636042287536,-0.329189439145762
"09L_AAGAGAGCGGTA",-0.37741353280691,0.903736341275654,0.331376989458189,-0.114574194573445,0.228204089791556,0.452984894871929,0.843169369118608,0.20468553795592,0.598630281589361,-0.0963289829139626,0.614007930533672,0.143059473613172,0.23634061613803,0.417097768603424,0.089777385141389,-0.145911562580539,0.277515049811824,-0.244122292008021,0.766402463617066,-0.35368221842541,-0.265760121514323,0.0412290411508514,0.00843981319328412,-0.278714164297855,0.00517741839386715,-0.0681417040044267,0.846867026377293,-0.303681125801315,0.124548915032704
"09G_CGACATACTTAA",0.16439478592631,-1.03230321530138,2.15083778918956,-0.337349259818689,0.106256691520465,-0.597053438466389,0.987645168656759,1.17850460945314,-0.817153990806709,-1.29275974837407,0.608514215727756,-0.0743993631986927,-0.152355920672767,0.303822331575064,0.0625714591004756,-0.699126941164738,0.119617928799807,0.359313789273697,-0.496977328760576,0.678642904815138,-0.253335097694537,-0.242790207675036,-0.307400023563927,-0.67068083151227,-0.222596742466428,0.157326116256337,-0.28449589650516,-0.636443161754025,0.0220488999172432
"09I_CGTCAGCAATCC",-1.97955845621108,-0.285996699110765,1.46421240085113,-0.178082441788994,-0.115493892327208,1.27138447524257,1.64136605481365,-0.856814753916741,0.642045139106986,-0.183808780429856,-0.037101446130573,0.204837225921905,-0.226553056219621,-0.607655626305554,-0.405391007998365,0.558379814073245,0.545081641048823,-0.616648647442847,0.0124189079562942,0.0881498320259894,-0.12781845294344,0.0873689609377651,-0.337011977674687,-0.528499405485668,-0.531898181892971,-0.15904047013147,0.521405616727693,-0.247179478928585,0.561413413954304
"09C_CTGGCGAAGGAC",-0.389651252246717,0.415596140271414,0.0751614737866447,-0.274167739883409,0.122691443863313,0.478663780941316,0.192503977992273,0.139404817657576,-0.238072993577104,-0.316677737639313,0.0885031900277077,0.179190262819801,0.300903629816153,0.152556305003243,-0.0526636090563091,-0.0934853096986796,-0.166357982565412,0.137167917399793,0.119207714800119,-0.0264041956845094,0.107421223612455,-0.149387021776903,0.217916618468912,0.130658804244446,-0.176894612423521,0.204835733480263,-0.390923171259274,-0.238300018822678,-0.203288271388261
"09H_GGCCCTAACAAT",-0.980800919114076,-1.09212409458942,0.710019839494196,0.448506898449567,-0.111417393791948,-0.333280238246214,0.0601768600598123,-0.640542236337962,0.0237582512037315,-0.332707137373075,-0.0684039382912486,-0.0945357734457458,-0.317124736232675,-0.0994320786760869,0.157091599812066,-0.404451525836793,-0.195510147374677,-0.031405193054395,0.236762370599489,-0.098490327083307,0.603205673075848,-0.223448227437183,0.34717626573216,-0.277702278835035,-0.108739799202233,-0.0752247989223056,-0.280701211217373,-0.0191584904639376,0.085700695156051
"09B_GAATTCGACCCC",-0.289082643482403,0.108922198233339,0.159320146387152,-0.0934096407482619,0.027772847384096,0.181422050990197,0.220870757434225,-0.103061062444751,-0.117679313285522,-0.0277997166756235,0.172572029358171,0.303973262075637,0.329211894041849,-0.12577586653383,0.178716802919814,-0.07600384399882,-0.0194866337168568,-0.0920919286221617,-0.149472686520894,0.113749393259507,-0.00978567919193457,-0.0133449613797058,0.184559874808369,-0.012030619732618,-0.334274244883697,-0.209223830279381,0.0716225110241775,-0.00470123436549367,-0.213870415121673
"09E_GGTTTAATCTTA",-1.00898757310471,-0.182887867314787,-0.13823370585685,-0.0794486373185365,0.202119439690041,0.363661857254513,-0.702712286502593,-0.0683530221118574,-0.381774044957282,0.692488689775593,0.414838671856095,-0.0312959471444574,0.638426156650316,0.468229954440046,-0.299912407776574,-0.0127633156274516,-0.398810136068038,-0.601126447421945,0.48361525322657,0.429793957335241,-0.178916390270557,-0.11571332850167,0.35872584989389,0.197142742538255,0.216565726439886,0.125862191197221,0.178443075997944,-0.0204203620164569,-0.303595072193088
"09L_ATCACCGTCATA",-0.976188774176688,-0.426283500969138,-0.0768732541333064,0.385768293935205,-0.146551810859557,0.0601979687519485,0.42607318634644,0.157239586638624,0.129481255770023,-0.137854297121297,-0.550400844553662,-0.283411220015573,0.114055400132169,0.336617992154378,0.299823731113954,0.169803893337413,-0.265207559795059,0.0942069577243293,-0.0476543739212833,-0.329145798868022,-0.327579472820485,-0.467327002846655,-0.384432159692572,0.00235846551036815,0.303801138787935,-0.239093383559866,0.0765571099766236,0.229040158498691,-0.108167227368758
"09I_CCGTGCTGACCA",-2.38968455755394,1.17594531665649,-1.71518460274617,0.965293244583232,-0.36637377719638,-1.62609291215399,1.16137627820415,-2.06121007242482,2.39615190539752,-1.56473239867623,-1.98568018378798,0.416426431098175,-0.867945925881263,-0.771063692208795,0.501778746825282,0.186089249760857,2.6407507216776,-0.494746993168995,0.831730055574084,-0.245443212952449,1.65071771532028,-0.414840797974757,-1.72435741104257,-1.84182773565858,-0.127679309743647,2.5387748583196,1.38487700162934,2.69659015605306,0.799615835478261
"09B_GTCTAAGGCCGG",-0.543676616457231,1.26589424205101,-0.25748516611749,0.467312702632004,-0.189721016283885,-1.093615083146,-0.216535551012904,0.519956781415649,0.0506339670760131,-0.330589930433309,-0.200058732711426,0.0660765571432285,-0.205345569784799,-0.380794910316981,-0.0126591515712773,0.377992831042437,0.129320799431209,0.193663712779753,-0.0109238787831009,0.335720970061961,-0.589854515775247,-0.264078902187673,-0.19817355287958,-0.166751558625401,-0.0293658776744745,0.1120557962788,-0.0151183311818096,-0.154152031552643,-0.0739638295563882
"09J_CGAATGTAAAGC",-1.20146394891627,-0.226213967515799,0.186611627490742,-0.265991980514851,0.163725539606779,1.6697437968403,-0.135766514454343,-0.178658052955788,-0.0721355810583137,-0.0670662036537111,0.383995966937335,0.385350759018249,0.464044861324127,-0.195173039088731,-0.328280356062867,0.253834128966878,-0.481182288203715,0.10496601081202,-0.804293266024745,0.318250879258863,-0.454495769053024,-0.148401863047643,-0.25514501702655,0.293057122624656,-1.17699482731057,0.605869131539382,-0.256002854370167,0.340591735196872,0.433161203873729
"09F_ACGATTACCGGT",-0.570768930286538,-1.70627359878237,0.060031353188592,0.111202671694622,0.140615782363791,-0.852063707849318,-0.273931591841997,0.0385355153908925,-0.57368010591742,-0.101168208850831,0.303613270978109,0.086868613998067,0.0714907911861847,-0.132753019171718,-0.357134307113766,0.543584174533944,0.430458123121207,0.0491032518050223,-0.053293356286324,0.348610317128755,0.102951067250001,0.247250791402802,-0.104091782310322,0.0475750137273625,0.179374211989395,0.229966778132414,0.613381103235407,0.0924223723353459,-0.0466515631705557
"09A_CGTCAACGGCGT",-0.530686183098675,-0.981844793944849,0.502882677148191,-0.283328147270729,0.0692738189497425,0.0581945365226474,0.750844513989914,0.119478185570307,-0.0274898358984631,0.598818406254505,-0.584197883927709,0.237945409067776,-0.262915542180627,-0.113081912180709,0.18727525210555,0.285707333812805,0.249795561520922,-0.34210734228349,-0.254159637056373,-0.326974615775369,0.377064717368874,0.203979232720748,-0.19141182719202,-0.0710608840373707,-0.300881228295897,0.451576306653201,0.349391792009705,-0.0784780825234719,0.371743706874178
"09B_AAATTGCCTCGT",-0.361137322426901,-0.80142994990823,1.27709661628634,-0.527603335587823,0.463540877269587,0.0663321894707101,0.496433228889671,0.492875483183468,-0.0903889193070641,0.0326476946207572,-0.333607474744643,-0.312058337206521,-0.0491562274269604,-0.328302481366269,-0.145036327023129,-0.514328233643444,0.453986729498238,0.226198030941559,0.0307128642848936,-0.348307359288254,0.207790335637655,-0.198804583057406,0.463590678604819,0.237150931930836,-0.127846022294724,-0.29922240679481,0.225063318838363,0.358235101501335,-0.211247351558602
"09C_AACAGAGTGTTA",-0.912415055674729,-1.95795064482631,1.1031249814702,-1.31066884581047,1.25499242071033,2.64121661630603,0.749784311496779,0.0659368951812377,-0.576115126885628,0.284434244770149,-0.736593533905753,-0.0399287255844289,-0.704662402001436,-0.665893155703959,1.46482236926788,1.3065814113803,0.664526860404557,-0.614269013913567,1.11605159696461,0.517984677919497,1.5780324802991,0.729067008992207,-2.09784703836585,0.0793291453591623,-0.818127364385964,1.1221342926266,0.0925746447519408,0.282993005804882,-0.552072687615839
"09L_GGTCACGATCGA",-2.25044789726938,-3.07459588901877,-0.960115978298834,0.72976981107036,1.11702777743364,-0.100116562244677,-1.21466480491278,0.380597494093413,0.0931993759077495,0.910181202687045,-0.0219719472303533,0.090628651359022,0.237122776294611,0.073889453985852,0.401706978752188,0.909336694473998,0.365682888036269,-0.32212375065772,0.305548981542316,1.06275559138634,-0.200899460852466,0.591786655981061,-0.0205900823959197,1.41657879102113,-0.500049054758533,-0.993111359016764,2.19369776758331,0.284923920095681,0.864482842843756
"09C_TTCTGGCGAGGT",-0.933963836275363,1.52116269832394,0.876771248973453,-1.30867520706755,0.503459860584023,2.12144783515861,1.97367188331222,1.17205520470847,-0.387327963598789,-0.800730250124672,-0.614404667182903,0.53172338833602,-0.0159143282856009,0.462135270463099,0.922005626625364,0.392226831008193,-1.26567660216153,-0.0763093235334294,-1.12375203509577,0.151621472369432,0.939581760011949,-1.40271676538616,-0.237803390706889,-1.23956276826627,-0.506681075888663,0.884803351577385,-0.983061896201877,1.90375154772725,-0.732708457460132
"09H_CAGCCTGAAGCT",-0.717973737249215,0.914995096180218,0.739926802081827,-0.251394816251108,0.107823364999417,0.139752323075421,0.514472568121761,0.669419336806332,0.358598560286664,-0.203181950804354,-0.062270825030464,0.630201804156439,-0.198411717087437,0.0225024747696506,-0.0152584436217486,0.405548351781274,0.870772717400576,-0.00205729958631732,-0.118469297004113,-0.0288211680358908,0.392145989854458,0.116403420380425,0.121574607431884,-0.021227461952527,-0.130551770060096,-0.0162444718929835,-0.171883741372358,-0.180309213809365,0.111198590208824
"09J_CTAATAAACTCC",-2.59827872807928,-0.524939132098287,-0.764890169411154,1.85860449678449,-1.29561561128948,-0.580713731769875,0.786749667260518,-3.49280655541771,2.42178956426083,2.00920330766803,0.0160149046874072,-1.39159851528825,-0.173852437148009,-2.33451096354675,-1.31835107644131,0.14095966163523,1.03416735943844,-2.04436377873322,2.03656426300782,0.0678995431312405,1.83419086939965,2.85201813706236,0.382783598858302,-1.90221733819883,-0.833358179713413,3.71617077818112,-2.42966610215688,2.13331051774882,-1.18248566279578
"09J_CGAGCCGAGGGT",-2.3131559663084,0.357921688596892,0.047519143426207,-0.577550227238586,0.158621098906312,1.6219935157456,0.425522063933889,1.05074019937768,1.0101378720649,0.590165094734891,0.639368213775307,0.0911347968301215,0.696196000143836,0.978806533305867,-0.791208283100354,1.09767730945938,-0.757677816423765,1.49073742919134,-0.836035394666436,2.00524002740236,-0.577775395134063,-0.936201695880995,-1.48287567263051,-0.0585230941004899,-0.117179810555254,0.607821875074512,-2.1445760668129,-0.606264972784478,-2.10527746833279
"09B_AGAGCACTCGTC",-0.286086523320912,-0.889449734021453,0.358866825072306,0.00199557546145748,0.018732815580336,-0.302007812662356,-0.0694108697787911,-0.0148842266767483,0.182381628884477,-0.188952766162898,-0.07669335850785,-0.343276564989867,0.125711996893171,0.110173681774448,0.174055445238057,-0.0260015635647961,0.121287481926505,0.00709441051180085,0.120038059953106,-0.178517833463402,-0.0506461867899862,0.120355537998482,-0.233507741472475,0.0938253244293893,0.326497229579874,-0.184687210279997,-0.0633001825103078,-0.210382522049371,-0.0492375985263011
"09E_ATAGTTTGGCTC",-0.476228214921207,-0.337377986159235,-0.303108291519804,0.163721507545589,-0.0361415505750285,-0.22485304891699,-0.217271413343134,-0.299497943694455,-0.0379924734557858,0.226767122012256,-0.108054987563449,0.230204449528363,0.228832264920724,0.028492839519996,-0.243599206076967,0.211322138972137,-0.0906258334159289,-0.1981339724568,-0.128986861398754,-0.00974228543292149,0.338258992035526,0.0455752477398894,0.341505712001694,0.191442190024205,0.132677823068512,-0.0921430468303007,-0.142216158796142,0.536740506205597,0.148978149674515
"09D_CCCTTCTTGTTT",-1.3123573430309,-2.46439486167904,-0.998852729964675,0.0361477596005774,0.433662479311886,-0.852294419181237,-0.622896268510907,0.285179753757112,0.236408921619071,0.327972398991072,-0.0845485788871291,0.330462408358507,-0.211837148825878,0.0146315841034892,-0.0957505699179748,0.6549061722676,-0.416118871933068,-0.21722769276384,0.958846880862105,0.362584749576517,-1.02454463751749,-0.0672564884146979,-0.525790639509617,0.69668082332205,0.293606221751151,0.494135251088669,-0.797259467028644,1.1497250515476,0.726351497441379
"09K_GTCGCGGCTAGC",-0.660740485121861,-0.477843258468677,-0.0611263050214289,0.232349892441865,0.0614780842199444,0.114163380293736,-0.339228028337208,-0.207591966156628,-0.251706022835043,-0.00293551812749322,0.334732091712914,0.319795216948672,0.274851340092938,0.00235101296119415,-0.312291080084197,-0.0190720091050811,-0.102259635250558,0.0837721476701684,0.334989333919538,0.280053709558971,0.165582711810462,-0.0371732227320105,0.418719292366173,0.0350267984271476,0.103144653766845,-0.316156316025877,0.250715005455476,-0.153103527221925,0.0536023261941515
"09C_CTATAATTGGCA",-2.89995242197682,-1.53402639404716,-0.171464741851822,-0.100913696146566,0.111465883634153,1.42135923590451,0.0453595998653918,-0.764213223809026,1.06565680434339,1.31733782309882,-0.366088246086375,-1.83661301694723,2.80653239237332,1.00202919130202,-2.76193106330915,-0.416895669348092,0.374366103172868,1.73023710345046,2.65029597413269,3.38691165442894,-0.63156143056372,2.63797899929029,2.64525241063118,0.216792925214574,0.102585144372548,0.260456443137525,-1.99577551037047,-2.00473321521604,-1.91037001205131
"09L_AGGTCAGCGAAA",-0.445783056396373,3.52290542561443,0.791267717251826,0.241476463101265,-0.343450082133865,-1.42563215560686,-0.168816461061611,-0.0509241219825679,0.800675818018262,0.463492173534334,-0.914595158437149,-0.852829065170904,-1.44014137290441,-1.56146164158171,0.205157936014248,-0.48783099287085,0.696368235696548,0.0158974018975993,0.209334405257494,1.40598250603801,-0.793792030389038,0.288981723099661,0.559403386303905,0.438662233144418,-0.240810680141469,0.791248830106914,1.3253829915404,0.786261507682546,-0.602558604594966
"09F_GTCGCCTGACTG",-0.163018269683233,0.585402884889029,0.3622725746884,-0.385923951443547,0.113287883021083,0.491827450171551,-0.189564752842271,-0.176447318570935,0.0646102468639377,-0.143603577907409,0.294437121479589,-0.0722915600730307,0.135259374056737,-0.255681899222904,0.238613012581283,-0.233251753946036,-0.497184590647173,-0.100060811626969,-0.497970504841596,-0.153623982115871,0.396011408519405,-0.160836125422858,0.122425491532879,0.115891639849745,0.0293929620399847,0.278738997321108,-0.16817170121986,-0.134090402400685,-0.184036669043283
"09C_AACAATTTGTGT",-1.01740960487619,-0.0174915716730374,-0.0423679609725231,0.193005856054151,0.0196496961842193,-0.143829495171212,-0.209141533293337,0.0918235643242611,-0.23253294891663,0.198442247123827,-0.167050162678625,0.0263703779324601,0.0379688671673433,-0.530187000677308,0.280331740746375,0.393805783491289,0.223025435411162,-0.220048498651377,0.0452664986395561,0.229250952889655,-0.448493708532113,-0.322838989171752,-0.262920330883858,-0.0215565413443157,0.238900989688332,0.310759837886433,-0.548787597930954,0.0103086981881384,0.295136169997124
"09K_TGCGGCTTCGGT",0.284275603565152,-0.110000493072096,0.377589487921402,0.0231842310256872,-0.249564090438404,0.171563139554016,-0.697660926610639,-0.0880073815690669,-0.19659601721096,-0.0279723726458364,-0.361660191912639,-0.36894339637021,-0.0773812164618105,0.096275992697656,-0.188392377831693,0.04148950554367,-0.436034473335572,-0.328696629403511,0.38061483101297,0.238662340627945,0.123221937510223,-0.207278580197373,-0.02628116773035,-0.00439245893325669,0.000505749390582058,-0.427014620450296,0.0640153933407674,0.0507960602955739,-0.0336860549950047
"09I_TGTCCTAGTCCG",-0.596086009815444,0.555172222473907,1.20906149907637,-1.14206604751971,-0.0871076849038107,0.780792378492591,0.430290761931528,1.29221250214627,0.450982899279356,-0.168238774482366,-0.230598466251473,-0.288748067482787,0.69424521980698,-0.0506646949412443,-0.11105390976901,-0.116978455135872,0.484156517663765,-0.0681131851916589,0.472980909864366,-1.39338949097808,-0.106216455539631,-0.20201303607414,0.580249950132226,0.00823135689613734,-0.00556422756062417,-0.410123616278566,0.316508559237024,0.256748369021605,0.490000834522489
"09A_GCTACAGCGATG",-0.4407139688287,-0.110740343927514,0.205806421087797,-1.17561047394965,0.173502746230909,-1.54457931139519,-0.205246752079296,0.299574782593889,0.0569660358846865,0.537317245121988,-0.732119822458189,-0.362158105147262,0.161646329843374,-1.1298871161025,-0.0210426180125048,-0.0400105227751855,0.148352394236444,-0.451841320663743,-0.257915036905823,0.223540391733742,0.119849936718019,-0.268639593721432,-1.50488348862664,0.118902118456846,0.743128904573288,-0.0530811668617987,-0.783544721458948,0.00728972067242769,0.964239943552322
"09A_CCGTGGGCACTA",-3.76316457443323,3.34508189426564,-2.47802012672893,3.5151054672672,-2.04941174917016,-4.2776356023348,-1.18396034396852,5.93718248994389,-1.19344049244621,0.273508618025687,0.546704185245473,6.23730926677528,-0.865769075353562,9.59205787797064,4.74631698862608,-7.37351439963327,0.0302305359489858,-0.439052209072455,4.7190892002653,6.86600919478903,2.92850906610435,0.978324348947945,2.20617625740185,0.762018899452797,1.26495552806079,1.25535208817221,3.31148174377378,4.75714320571866,5.12610593302295
"09C_CACGCCTGGACC",0.0810977530218974,0.0119578522665196,0.209229326409226,-0.835506952930612,0.137437961102632,0.958841461546468,0.364336888974212,0.52836736155208,-0.414141750995301,-0.476308024148612,0.0755207371795998,0.11639955896728,0.225872302682241,0.43959576919044,0.470920855718519,0.16382379414713,0.114683262295164,-0.0920131289822064,0.0222515810125235,-0.495329339528593,0.210159433644995,-0.0701337912427265,0.257956555013246,-1.02623477970569,0.48618826543228,0.203816629347089,0.223447234061579,-0.508787941112745,0.0880873721689825
"09I_CGAGCGCTTGAT",-0.0686645761851511,-0.404035976267459,0.0126066526598055,-0.788039444749592,0.332866717600015,-0.145546288586591,0.197347507377051,-0.170996356482288,0.0616046712070604,-0.0115367376858786,-0.343539655350358,0.0862309241443524,-0.168253945563953,0.0966412690461797,-0.0953379158764917,-0.125158637502977,0.0296615397528594,-0.107449528223524,-0.0183505636652119,0.120025944496844,-0.0255853999134168,-0.187569328076689,-0.0719077173488134,0.0873134041299456,0.131176589789444,0.365351110882473,-0.185470504434844,0.0878600920749463,0.0384837009636999
"09F_TGTATGAAAACC",-0.262961493468238,0.474981811706729,0.244624714134116,-0.0206283217169585,-0.0643211896780694,-0.1892360441186,-0.0783477456913372,-0.16238190749878,0.13588788360529,0.227903076191211,0.0892382613638833,-0.168214824477621,-0.0815527488359849,0.239464568893982,-0.0108550725441474,-0.159429840970215,0.0841491276247718,-0.320900347574773,0.211651033494923,0.17116211863904,-0.0721718361531979,-0.259621008197409,-0.243675607937757,-0.338868158701175,0.00148730559715981,-0.291712118927115,-0.358610841395053,-0.2653739210046,-0.273792366699233
